{"learner":{"attributes":{"scikit_learn":"{\"_estimator_type\": \"classifier\"}"},"feature_names":[],"feature_types":[],"gradient_booster":{"model":{"cats":{"enc":[],"feature_segments":[],"sorted_idx":[]},"gbtree_model_param":{"num_parallel_tree":"1","num_trees":"600"},"iteration_indptr":[0,1,2,3,4,5,6,7,8,9,10,11,12,13,14,15,16,17,18,19,20,21,22,23,24,25,26,27,28,29,30,31,32,33,34,35,36,37,38,39,40,41,42,43,44,45,46,47,48,49,50,51,52,53,54,55,56,57,58,59,60,61,62,63,64,65,66,67,68,69,70,71,72,73,74,75,76,77,78,79,80,81,82,83,84,85,86,87,88,89,90,91,92,93,94,95,96,97,98,99,100,101,102,103,104,105,106,107,108,109,110,111,112,113,114,115,116,117,118,119,120,121,122,123,124,125,126,127,128,129,130,131,132,133,134,135,136,137,138,139,140,141,142,143,144,145,146,147,148,149,150,151,152,153,154,155,156,157,158,159,160,161,162,163,164,165,166,167,168,169,170,171,172,173,174,175,176,177,178,179,180,181,182,183,184,185,186,187,188,189,190,191,192,193,194,195,196,197,198,199,200,201,202,203,204,205,206,207,208,209,210,211,212,213,214,215,216,217,218,219,220,221,222,223,224,225,226,227,228,229,230,231,232,233,234,235,236,237,238,239,240,241,242,243,244,245,246,247,248,249,250,251,252,253,254,255,256,257,258,259,260,261,262,263,264,265,266,267,268,269,270,271,272,273,274,275,276,277,278,279,280,281,282,283,284,285,286,287,288,289,290,291,292,293,294,295,296,297,298,299,300,301,302,303,304,305,306,307,308,309,310,311,312,313,314,315,316,317,318,319,320,321,322,323,324,325,326,327,328,329,330,331,332,333,334,335,336,337,338,339,340,341,342,343,344,345,346,347,348,349,350,351,352,353,354,355,356,357,358,359,360,361,362,363,364,365,366,367,368,369,370,371,372,373,374,375,376,377,378,379,380,381,382,383,384,385,386,387,388,389,390,391,392,393,394,395,396,397,398,399,400,401,402,403,404,405,406,407,408,409,410,411,412,413,414,415,416,417,418,419,420,421,422,423,424,425,426,427,428,429,430,431,432,433,434,435,436,437,438,439,440,441,442,443,444,445,446,447,448,449,450,451,452,453,454,455,456,457,458,459,460,461,462,463,464,465,466,467,468,469,470,471,472,473,474,475,476,477,478,479,480,481,482,483,484,485,486,487,488,489,490,491,492,493,494,495,496,497,498,499,500,501,502,503,504,505,506,507,508,509,510,511,512,513,514,515,516,517,518,519,520,521,522,523,524,525,526,527,528,529,530,531,532,533,534,535,536,537,538,539,540,541,542,543,544,545,546,547,548,549,550,551,552,553,554,555,556,557,558,559,560,561,562,563,564,565,566,567,568,569,570,571,572,573,574,575,576,577,578,579,580,581,582,583,584,585,586,587,588,589,590,591,592,593,594,595,596,597,598,599,600],"tree_info":[0,0,0,0,0,0,0,0,0,0,0,0,0,0,0,0,0,0,0,0,0,0,0,0,0,0,0,0,0,0,0,0,0,0,0,0,0,0,0,0,0,0,0,0,0,0,0,0,0,0,0,0,0,0,0,0,0,0,0,0,0,0,0,0,0,0,0,0,0,0,0,0,0,0,0,0,0,0,0,0,0,0,0,0,0,0,0,0,0,0,0,0,0,0,0,0,0,0,0,0,0,0,0,0,0,0,0,0,0,0,0,0,0,0,0,0,0,0,0,0,0,0,0,0,0,0,0,0,0,0,0,0,0,0,0,0,0,0,0,0,0,0,0,0,0,0,0,0,0,0,0,0,0,0,0,0,0,0,0,0,0,0,0,0,0,0,0,0,0,0,0,0,0,0,0,0,0,0,0,0,0,0,0,0,0,0,0,0,0,0,0,0,0,0,0,0,0,0,0,0,0,0,0,0,0,0,0,0,0,0,0,0,0,0,0,0,0,0,0,0,0,0,0,0,0,0,0,0,0,0,0,0,0,0,0,0,0,0,0,0,0,0,0,0,0,0,0,0,0,0,0,0,0,0,0,0,0,0,0,0,0,0,0,0,0,0,0,0,0,0,0,0,0,0,0,0,0,0,0,0,0,0,0,0,0,0,0,0,0,0,0,0,0,0,0,0,0,0,0,0,0,0,0,0,0,0,0,0,0,0,0,0,0,0,0,0,0,0,0,0,0,0,0,0,0,0,0,0,0,0,0,0,0,0,0,0,0,0,0,0,0,0,0,0,0,0,0,0,0,0,0,0,0,0,0,0,0,0,0,0,0,0,0,0,0,0,0,0,0,0,0,0,0,0,0,0,0,0,0,0,0,0,0,0,0,0,0,0,0,0,0,0,0,0,0,0,0,0,0,0,0,0,0,0,0,0,0,0,0,0,0,0,0,0,0,0,0,0,0,0,0,0,0,0,0,0,0,0,0,0,0,0,0,0,0,0,0,0,0,0,0,0,0,0,0,0,0,0,0,0,0,0,0,0,0,0,0,0,0,0,0,0,0,0,0,0,0,0,0,0,0,0,0,0,0,0,0,0,0,0,0,0,0,0,0,0,0,0,0,0,0,0,0,0,0,0,0,0,0,0,0,0,0,0,0,0,0,0,0,0,0,0,0,0,0,0,0,0,0,0,0,0,0,0,0,0,0,0,0,0,0,0,0,0,0,0,0,0,0,0,0,0,0,0,0,0,0,0,0,0,0,0,0,0,0,0,0,0,0,0,0,0,0,0,0,0,0,0,0,0,0,0,0,0,0,0,0,0,0,0,0,0,0,0,0,0,0,0,0,0,0,0,0,0,0,0,0,0,0,0],"trees":[{"base_weights":[1.0069569E-2,-2.0513434E0,1.927935E0,-8.114765E-3,-2.062298E0,-7.175513E-2,9.653649E-2,8.582482E-2,-8.659116E-2,-2.0666234E0,-1.172738E0,-1.0338147E-1,-8.0409616E-1,1.1028546E0,-9.570145E-2,9.142208E-3,-6.595207E-2,9.142208E-3,6.895113E-2],"categories":[],"categories_nodes":[],"categories_segments":[],"categories_sizes":[],"default_left":[0,0,0,0,0,0,0,0,0,0,0,0,0,0,0,0,0,0,0],"id":0,"left_children":[1,3,5,7,9,-1,-1,-1,-1,11,13,-1,15,17,-1,-1,-1,-1,-1],"loss_changes":[2.4573592E4,6.703711E1,3.3035156E1,5.344889E1,9.0390625E0,0E0,0E0,0E0,0E0,2.102539E0,3.0332493E1,0E0,2.2721317E0,9.5351696E-1,0E0,0E0,0E0,0E0,0E0],"parents":[2147483647,0,0,1,1,2,2,3,3,4,4,9,9,10,10,12,12,13,13],"right_children":[2,4,6,8,10,-1,-1,-1,-1,12,14,-1,16,18,-1,-1,-1,-1,-1],"split_conditions":[3.8189769E0,-2.0185642E0,-3.875107E-1,2.8952137E-1,1.2588884E0,-7.175513E-2,9.653649E-2,8.582482E-2,-8.659116E-2,5.621876E-1,-1.3814051E0,-1.0338147E-1,-1.6813667E0,-6.32419E-1,-9.570145E-2,9.142208E-3,-6.595207E-2,9.142208E-3,6.895113E-2],"split_indices":[105,52,31,45,99,0,0,0,0,36,52,0,4,2,0,0,0,0,0],"split_type":[0,0,0,0,0,0,0,0,0,0,0,0,0,0,0,0,0,0,0],"sum_hessian":[6.213635E3,2.9947092E3,3.2189255E3,1.5979773E1,2.9787295E3,2.2471554E0,3.2166782E3,7.9898863E0,7.9898863E0,2.9629995E3,1.5730088E1,2.9600032E3,2.9962072E0,3.7452593E0,1.1984829E1,1.2484198E0,1.7477876E0,1.2484198E0,2.4968395E0],"tree_param":{"num_deleted":"0","num_feature":"128","num_nodes":"19","size_leaf_vector":"1"}},{"base_weights":[-2.820325E-3,-1.9469081E0,1.8426447E0,5.494719E-1,-1.9618587E0,9.225305E-2,-6.613961E-2,8.6520225E-2,-1.4444104E0,-1.4179852E0,-9.8302715E-2,-8.274149E-2,-1.08862445E-2,1.0153208E0,-1.8009611E0,6.5215446E-2,8.877219E-3,-9.411021E-2,-1.0310164E-2],"categories":[],"categories_nodes":[],"categories_segments":[],"categories_sizes":[],"default_left":[0,0,0,0,0,0,0,0,0,0,0,0,0,0,0,0,0,0,0],"id":1,"left_children":[1,3,5,7,9,-1,-1,-1,11,13,-1,-1,-1,15,17,-1,-1,-1,-1],"loss_changes":[2.2165459E4,1.1336914E2,2.668164E1,4.6513676E1,4.038086E0,0E0,0E0,0E0,1.5750961E0,2.6508888E1,0E0,0E0,0E0,7.9519033E-1,2.6233215E0,0E0,0E0,0E0,0E0],"parents":[2147483647,0,0,1,1,2,2,3,3,4,4,8,8,9,9,13,13,14,14],"right_children":[2,4,6,8,10,-1,-1,-1,12,14,-1,-1,-1,16,18,-1,-1,-1,-1],"split_conditions":[3.68686E0,-2.2836616E0,-1.6146951E0,-1.5423435E0,-1.9498489E0,9.225305E-2,-6.613961E-2,8.6520225E-2,-1.8150539E0,1.4746599E0,-9.8302715E-2,-8.274149E-2,-1.08862445E-2,-4.8910996E-1,-9.082908E-1,6.5215446E-2,8.877219E-3,-9.411021E-2,-1.0310164E-2],"split_indices":[14,93,50,52,93,0,0,0,4,124,0,0,0,19,28,0,0,0,0],"split_type":[0,0,0,0,0,0,0,0,0,0,0,0,0,0,0,0,0,0,0],"sum_hessian":[6.1761016E3,3.007658E3,3.1684438E3,1.769256E1,2.9899653E3,3.166444E3,1.9998103E0,1.1194467E1,6.498093E0,2.5483961E1,2.9644814E3,5.2487283E0,1.2493651E0,3.2409391E0,2.2243023E1,1.9956698E0,1.2452693E0,2.0993298E1,1.2497252E0],"tree_param":{"num_deleted":"0","num_feature":"128","num_nodes":"19","size_leaf_vector":"1"}},{"base_weights":[-5.147114E-3,-1.8559343E0,1.768484E0,5.795193E-1,-1.8704809E0,-6.1104666E-2,8.8527106E-2,-8.078181E-2,8.416998E-2,-1.2511504E0,-9.3739815E-2,-1.6523881E0,8.329479E-1,-8.94946E-2,1.2104315E-2,6.649879E-2,-1.2833627E-2],"categories":[],"categories_nodes":[],"categories_segments":[],"categories_sizes":[],"default_left":[0,0,0,0,0,0,0,0,0,0,0,0,0,0,0,0,0],"id":2,"left_children":[1,3,5,7,9,-1,-1,-1,-1,11,-1,13,15,-1,-1,-1,-1],"loss_changes":[2.0146916E4,1.07487305E2,2.1454102E1,4.7780937E1,5.633789E0,0E0,0E0,0E0,0E0,2.1167263E1,0E0,5.6905136E0,2.770711E0,0E0,0E0,0E0,0E0],"parents":[2147483647,0,0,1,1,2,2,3,3,4,4,9,9,11,11,12,12],"right_children":[2,4,6,8,10,-1,-1,-1,-1,12,-1,14,16,-1,-1,-1,-1],"split_conditions":[3.8189769E0,-2.2836616E0,-3.875107E-1,-6.607948E-2,-1.9498489E0,-6.1104666E-2,8.8527106E-2,-8.078181E-2,8.416998E-2,-1.1781746E0,-9.3739815E-2,1.3133034E0,7.473603E-1,-8.94946E-2,1.2104315E-2,6.649879E-2,-1.2833627E-2],"split_indices":[105,93,31,79,93,0,0,0,0,32,0,75,64,0,0,0,0],"split_type":[0,0,0,0,0,0,0,0,0,0,0,0,0,0,0,0,0],"sum_hessian":[6.135462E3,3.002403E3,3.133059E3,1.7595818E1,2.9848071E3,1.7470009E0,3.131312E3,5.73256E0,1.1863257E1,2.2667143E1,2.9621401E3,1.9181416E1,3.4857266E0,1.793488E1,1.2465366E0,2.2423139E0,1.2434129E0],"tree_param":{"num_deleted":"0","num_feature":"128","num_nodes":"17","size_leaf_vector":"1"}},{"base_weights":[-6.8377648E-3,-1.7786789E0,1.7027038E0,5.955041E-1,-1.7922014E0,8.526323E-2,-6.383746E-2,-7.065571E-2,8.031373E-2,-1.2366375E0,-8.982923E-2,9.0366346E-1,-1.653644E0,-1.18499575E-2,6.735741E-2,-8.644996E-2,-1.7821763E-2],"categories":[],"categories_nodes":[],"categories_segments":[],"categories_sizes":[],"default_left":[0,0,0,0,0,0,0,0,0,0,0,0,0,0,0,0,0],"id":3,"left_children":[1,3,5,7,9,-1,-1,-1,-1,11,-1,13,15,-1,-1,-1,-1],"loss_changes":[1.845298E4,9.7109375E1,2.5833008E1,3.819024E1,5.0234375E0,0E0,0E0,0E0,0E0,2.514177E1,0E0,2.8319407E0,1.5858765E0,0E0,0E0,0E0,0E0],"parents":[2147483647,0,0,1,1,2,2,3,3,4,4,9,9,11,11,12,12],"right_children":[2,4,6,8,10,-1,-1,-1,-1,12,-1,14,16,-1,-1,-1,-1],"split_conditions":[3.68686E0,-2.2836616E0,-1.3522583E0,3.1506132E-2,-1.9498489E0,8.526323E-2,-6.383746E-2,-7.065571E-2,8.031373E-2,1.4746599E0,-8.982923E-2,-5.260229E-1,-8.5129213E-1,-1.18499575E-2,6.735741E-2,-8.644996E-2,-1.7821763E-2],"split_indices":[14,93,50,79,93,0,0,0,0,124,0,83,28,0,0,0,0],"split_type":[0,0,0,0,0,0,0,0,0,0,0,0,0,0,0,0,0],"sum_hessian":[6.090031E3,2.990505E3,3.099526E3,1.6692577E1,2.9738123E3,3.0972917E3,2.2343304E0,5.454753E0,1.1237824E1,2.5495144E1,2.9483171E3,3.967057E0,2.1528088E1,1.2409294E0,2.7261276E0,2.0031586E1,1.4965012E0],"tree_param":{"num_deleted":"0","num_feature":"128","num_nodes":"17","size_leaf_vector":"1"}},{"base_weights":[2.9946559E-3,-1.7122873E0,1.6450565E0,5.9143746E-1,-1.7238154E0,8.237787E-2,-5.7986945E-1,-7.1401544E-2,7.3793806E-2,-1.313701E0,-8.648238E-2,-5.9770145E-2,2.5791137E-2,6.89314E-1,-1.5355552E0,-4.9237344E-2,7.2949074E-2,-1.6219095E0,-1.2926282E-1,-6.1458717E-3,-8.341385E-2,3.7603956E-2,-4.776421E-2],"categories":[],"categories_nodes":[],"categories_segments":[],"categories_sizes":[],"default_left":[0,0,0,0,0,0,0,0,0,0,0,0,0,0,0,0,0,0,0,0,0,0,0],"id":4,"left_children":[1,3,5,7,9,-1,11,-1,-1,13,-1,-1,-1,15,17,-1,-1,19,21,-1,-1,-1,-1],"loss_changes":[1.6870742E4,7.8822266E1,1.7983398E1,2.9491224E1,4.701172E0,0E0,3.4327946E0,0E0,0E0,2.107064E1,0E0,0E0,0E0,8.112015E0,4.751549E0,0E0,0E0,2.4641342E0,3.2301416E0,0E0,0E0,0E0,0E0],"parents":[2147483647,0,0,1,1,2,2,3,3,4,4,6,6,9,9,13,13,14,14,17,17,18,18],"right_children":[2,4,6,8,10,-1,12,-1,-1,14,-1,-1,-1,16,18,-1,-1,20,22,-1,-1,-1,-1],"split_conditions":[3.8189769E0,-2.2836616E0,7.6466125E-1,-1.8987945E-1,-1.8129501E0,8.237787E-2,-7.22977E0,-7.1401544E-2,7.3793806E-2,-1.4826663E-1,-8.648238E-2,-5.9770145E-2,2.5791137E-2,4.6813694E-1,3.3468254E-2,-4.9237344E-2,7.2949074E-2,-1.5381988E0,1.5572214E0,-6.1458717E-3,-8.341385E-2,3.7603956E-2,-4.776421E-2],"split_indices":[105,93,0,79,93,0,8,0,0,106,0,0,0,18,33,0,0,48,9,0,0,0,0],"split_type":[0,0,0,0,0,0,0,0,0,0,0,0,0,0,0,0,0,0,0,0,0,0,0],"sum_hessian":[5.987756E3,2.9285637E3,3.0591921E3,1.4331555E1,2.9142322E3,3.0560166E3,3.175611E0,4.1777472E0,1.0153809E1,4.4034134E1,2.870198E3,1.9750648E0,1.2005461E0,4.1807847E0,3.9853348E1,1.2287514E0,2.9520333E0,3.7403255E1,2.4500926E0,1.2318008E0,3.6171455E1,1.2286613E0,1.2214314E0],"tree_param":{"num_deleted":"0","num_feature":"128","num_nodes":"23","size_leaf_vector":"1"}},{"base_weights":[-6.60765E-3,1.59395E0,-1.6508487E0,-5.8932263E-2,7.981893E-2,7.3628896E-1,-1.6645209E0,-6.94039E-2,7.566745E-2,-1.1727142E0,-8.339473E-2,-1.4834545E0,8.5540456E-1,1.0918E-2,-8.023604E-2,5.6189056E-2,8.318133E-3],"categories":[],"categories_nodes":[],"categories_segments":[],"categories_sizes":[],"default_left":[0,0,0,0,0,0,0,0,0,0,0,0,0,0,0,0,0],"id":5,"left_children":[1,3,5,-1,-1,7,9,-1,-1,11,-1,13,15,-1,-1,-1,-1],"loss_changes":[1.5501372E4,2.1979004E1,9.6052246E1,0E0,0E0,3.055879E1,2.8388672E0,0E0,0E0,1.5797684E1,0E0,4.551399E0,4.9673104E-1,0E0,0E0,0E0,0E0],"parents":[2147483647,0,0,1,1,2,2,5,5,6,6,9,9,11,11,12,12],"right_children":[2,4,6,-1,-1,8,10,-1,-1,12,-1,14,16,-1,-1,-1,-1],"split_conditions":[-3.2722058E0,1.8844265E0,-2.2836616E0,-5.8932263E-2,7.981893E-2,-6.607948E-2,-1.9498489E0,-6.94039E-2,7.566745E-2,-1.9221741E0,-8.339473E-2,-1.7359936E-1,-1.0669374E0,1.0918E-2,-8.023604E-2,5.6189056E-2,8.318133E-3],"split_indices":[7,108,93,0,0,79,93,0,0,111,0,106,74,0,0,0,0],"split_type":[0,0,0,0,0,0,0,0,0,0,0,0,0,0,0,0,0],"sum_hessian":[5.888245E3,2.9837734E3,2.9044714E3,2.18739E0,2.981586E3,1.6239416E1,2.888232E3,4.138647E0,1.2100769E1,2.2053495E1,2.8661785E3,1.935635E1,2.6971455E0,1.2342722E0,1.8122078E1,1.487027E0,1.2101184E0],"tree_param":{"num_deleted":"0","num_feature":"128","num_nodes":"17","size_leaf_vector":"1"}},{"base_weights":[7.4857627E-3,-1.5974437E0,1.5481732E0,5.530002E-1,-1.6096883E0,-5.6421567E-2,1.550313E0,6.977441E-2,-6.392302E-2,-1.2168877E0,-8.0793336E-2,7.752864E-2,2.378372E-2,-1.4274697E0,8.1555516E-1,-1.5540873E0,5.226284E-2,6.861211E-2,-2.7454084E-2,-7.972952E-2,-7.430442E-1,-5.2357465E-2,-1.678527E-3],"categories":[],"categories_nodes":[],"categories_segments":[],"categories_sizes":[],"default_left":[0,0,0,0,0,0,0,0,0,0,0,0,0,0,0,0,0,0,0,0,0,0,0],"id":6,"left_children":[1,3,5,7,9,-1,11,-1,-1,13,-1,-1,-1,15,17,19,-1,-1,-1,-1,21,-1,-1],"loss_changes":[1.4307051E4,7.551074E1,1.8657715E1,2.7689545E1,4.8740234E0,0E0,8.59375E-2,0E0,0E0,2.1575424E1,0E0,0E0,0E0,1.5267845E1,4.638237E0,1.9010925E-1,0E0,0E0,0E0,0E0,7.9840016E-1,0E0,0E0],"parents":[2147483647,0,0,1,1,2,2,3,3,4,4,6,6,9,9,13,13,14,14,15,15,20,20],"right_children":[2,4,6,8,10,-1,12,-1,-1,14,-1,-1,-1,16,18,20,-1,-1,-1,-1,22,-1,-1],"split_conditions":[3.68686E0,-2.2836616E0,-6.25479E-2,-1.1396636E0,-1.8129501E0,-5.6421567E-2,-2.509849E0,6.977441E-2,-6.392302E-2,-1.10469E0,-8.0793336E-2,7.752864E-2,2.378372E-2,1.4299673E0,3.2171476E-1,-1.2308016E0,5.226284E-2,6.861211E-2,-2.7454084E-2,-7.972952E-2,-7.190136E-1,-5.2357465E-2,-1.678527E-3],"split_indices":[14,93,27,121,93,0,5,0,0,32,0,0,0,75,87,32,0,0,0,0,2,0,0],"split_type":[0,0,0,0,0,0,0,0,0,0,0,0,0,0,0,0,0,0,0,0,0,0,0],"sum_hessian":[5.7840156E3,2.832927E3,2.9510886E3,1.5789208E1,2.817138E3,1.9369721E0,2.9491516E3,1.0977506E1,4.8117027E0,4.66903E1,2.7704475E3,2.947996E3,1.1553762E0,4.2576588E1,4.1137147E0,4.0856037E1,1.7205513E0,2.9178429E0,1.1958717E0,3.7992603E1,2.8634334E0,1.6711627E0,1.1922706E0],"tree_param":{"num_deleted":"0","num_feature":"128","num_nodes":"23","size_leaf_vector":"1"}},{"base_weights":[4.3195277E-3,-1.5495846E0,1.5068567E0,6.2672687E-1,-1.5618715E0,-5.596263E-2,1.5092062E0,-6.015132E-2,7.153396E-2,-1.1872804E0,-7.838314E-2,7.547361E-2,2.2251768E-2,-1.4158784E0,7.2683126E-1,-1.5217096E0,3.3352472E-2,-4.628102E-2,6.951224E-2,-1.9525452E-2,-7.728155E-2],"categories":[],"categories_nodes":[],"categories_segments":[],"categories_sizes":[],"default_left":[0,0,0,0,0,0,0,0,0,0,0,0,0,0,0,0,0,0,0,0,0],"id":7,"left_children":[1,3,5,7,9,-1,11,-1,-1,13,-1,-1,-1,15,17,19,-1,-1,-1,-1,-1],"loss_changes":[1.3191424E4,7.524805E1,1.9411133E1,2.5708643E1,4.131836E0,0E0,1.4111328E-1,0E0,0E0,2.1233604E1,0E0,0E0,0E0,1.0182686E1,7.4116926E0,4.7562408E-1,0E0,0E0,0E0,0E0,0E0],"parents":[2147483647,0,0,1,1,2,2,3,3,4,4,6,6,9,9,13,13,14,14,15,15],"right_children":[2,4,6,8,10,-1,12,-1,-1,14,-1,-1,-1,16,18,20,-1,-1,-1,-1,-1],"split_conditions":[3.68686E0,-2.2836616E0,-6.25479E-2,3.1506132E-2,-1.8129501E0,-5.596263E-2,-1.1603583E0,-6.015132E-2,7.153396E-2,-1.1469938E0,-7.838314E-2,7.547361E-2,2.2251768E-2,1.3612686E0,8.694354E-1,1.3138629E0,3.3352472E-2,-4.628102E-2,6.951224E-2,-1.9525452E-2,-7.728155E-2],"split_indices":[14,93,27,79,93,0,29,0,0,32,0,0,0,75,68,3,0,0,0,0,0],"split_type":[0,0,0,0,0,0,0,0,0,0,0,0,0,0,0,0,0,0,0,0,0],"sum_hessian":[5.6479185E3,2.776484E3,2.8714346E3,1.5306549E1,2.7611775E3,2.141763E0,2.869293E3,4.5208783E0,1.0785671E1,4.5175163E1,2.7160022E3,2.8681575E3,1.1352776E0,4.058811E1,4.5870504E0,3.8882E1,1.7061138E0,1.2008061E0,3.3862443E0,1.1639817E0,3.7718018E1],"tree_param":{"num_deleted":"0","num_feature":"128","num_nodes":"21","size_leaf_vector":"1"}},{"base_weights":[-8.002739E-3,-1.5078422E0,1.4702655E0,5.0850135E-1,-1.5191604E0,-5.3671774E-2,7.361957E-2,6.887501E-2,-1.0982047E0,-9.889634E-1,-7.615954E-2,-6.276133E-3,-6.517516E-2,-1.3537958E0,5.2939236E-2,-9.062547E-3,-7.333305E-2],"categories":[],"categories_nodes":[],"categories_segments":[],"categories_sizes":[],"default_left":[0,0,0,0,0,0,0,0,0,0,0,0,0,0,0,0,0],"id":8,"left_children":[1,3,5,7,9,-1,-1,-1,11,13,-1,-1,-1,15,-1,-1,-1],"loss_changes":[1.2240891E4,6.331299E1,1.6615234E1,2.3916946E1,4.3183594E0,0E0,0E0,0E0,1.0722241E0,1.8924866E1,0E0,0E0,0E0,2.4221497E0,0E0,0E0,0E0],"parents":[2147483647,0,0,1,1,2,2,3,3,4,4,8,8,9,9,13,13],"right_children":[2,4,6,8,10,-1,-1,-1,12,14,-1,-1,-1,16,-1,-1,-1],"split_conditions":[3.8189769E0,-2.2836616E0,-3.875107E-1,-1.5423435E0,-1.9498489E0,-5.3671774E-2,7.361957E-2,6.887501E-2,-1.8406937E0,-1.1781746E0,-7.615954E-2,-6.276133E-3,-6.517516E-2,-1.5423435E0,5.2939236E-2,-9.062547E-3,-7.333305E-2],"split_indices":[105,93,31,52,93,0,0,0,69,32,0,0,0,52,0,0,0],"split_type":[0,0,0,0,0,0,0,0,0,0,0,0,0,0,0,0,0],"sum_hessian":[5.518965E3,2.7394849E3,2.77948E3,1.5046237E1,2.7244387E3,1.9000686E0,2.77758E3,9.8574295E0,5.188808E0,2.2412983E1,2.7020256E3,1.1851429E0,4.003665E0,1.9311312E1,3.1016703E0,1.9244354E0,1.7386877E1],"tree_param":{"num_deleted":"0","num_feature":"128","num_nodes":"17","size_leaf_vector":"1"}},{"base_weights":[-2.4134282E-3,-1.469233E0,1.435951E0,-1.478344E0,1.5603948E-1,7.194041E-2,-5.3907007E-1,-5.443153E-1,-1.4805838E0,-9.7920924E-1,1.1475918E0,-5.7370245E-2,3.8084973E-2,-6.2460173E-2,4.298691E-2,-1.4814348E0,-8.401378E-3,-6.408323E-2,2.3184717E-2,6.433293E-2,4.621077E-3,-7.4269995E-2,-1.2689401E0,7.7715504E-1,-1.3929049E0,-7.176224E-3,6.0517322E-2,-1.4474148E0,-6.33823E-1,-7.318871E-2,-2.06518E-2,-5.779497E-2,3.216004E-2],"categories":[],"categories_nodes":[],"categories_segments":[],"categories_sizes":[],"default_left":[0,0,0,0,0,0,0,0,0,0,0,0,0,0,0,0,0,0,0,0,0,0,0,0,0,0,0,0,0,0,0,0,0],"id":9,"left_children":[1,3,5,7,9,-1,11,13,15,17,19,-1,-1,-1,-1,21,-1,-1,-1,-1,-1,-1,23,25,27,-1,-1,29,31,-1,-1,-1,-1],"loss_changes":[1.1351737E4,3.967578E1,1.6103516E1,4.7368164E0,1.8857647E1,0E0,4.554699E0,8.911034E0,2.7016602E0,4.035207E0,1.1826267E0,0E0,0E0,0E0,0E0,3.4033203E-1,0E0,0E0,0E0,0E0,0E0,0E0,1.5090599E1,1.6879714E0,1.2520447E0,0E0,0E0,2.0999908E-1,4.2715755E0,0E0,0E0,0E0,0E0],"parents":[2147483647,0,0,1,1,2,2,3,3,4,4,6,6,7,7,8,8,9,9,10,10,15,15,22,22,23,23,24,24,27,27,28,28],"right_children":[2,4,6,8,10,-1,12,14,16,18,20,-1,-1,-1,-1,22,-1,-1,-1,-1,-1,-1,24,26,28,-1,-1,30,32,-1,-1,-1,-1],"split_conditions":[3.8189769E0,2.0901477E0,7.6466125E-1,-2.0185642E0,2.6488967E0,7.194041E-2,-6.8455186E0,2.4427404E0,5.621876E-1,-1.4338595E0,1.079397E0,-5.7370245E-2,3.8084973E-2,-6.2460173E-2,4.298691E-2,2.5258777E0,-8.401378E-3,-6.408323E-2,2.3184717E-2,6.433293E-2,4.621077E-3,-7.4269995E-2,-1.5423435E0,-1.3878464E0,-4.125694E-1,-7.176224E-3,6.0517322E-2,3.22134E-1,-7.233604E-1,-7.318871E-2,-2.06518E-2,-5.779497E-2,3.216004E-2],"split_indices":[105,120,0,52,105,0,8,105,36,65,16,0,0,0,0,105,0,0,0,0,0,0,52,90,36,0,0,25,25,0,0,0,0],"split_type":[0,0,0,0,0,0,0,0,0,0,0,0,0,0,0,0,0,0,0,0,0,0,0,0,0,0,0,0,0,0,0,0,0],"sum_hessian":[5.378426E3,2.6628623E3,2.7155632E3,2.6481082E3,1.475426E1,2.7119119E3,3.6514668E0,6.9186006E0,2.6411895E3,6.884501E0,7.869759E0,2.5682626E0,1.0832043E0,4.679568E0,2.2390327E0,2.6393496E3,1.8400011E0,5.783859E0,1.1006422E0,6.7595015E0,1.1102575E0,2.585122E3,5.4227425E1,2.796743E0,5.143068E1,1.1088147E0,1.6879282E0,4.713883E1,4.2918525E0,4.599625E1,1.1425782E0,3.1137352E0,1.1781173E0],"tree_param":{"num_deleted":"0","num_feature":"128","num_nodes":"33","size_leaf_vector":"1"}},{"base_weights":[-6.62212E-3,1.405096E0,-1.432112E0,-5.6737542E-2,7.041844E-2,7.725154E-1,-1.4460007E0,-5.798502E-2,1.3025675E0,-8.784701E-1,-7.250566E-2,1.6869038E-2,6.78952E-2,-1.2985728E0,8.0640084E-1,-6.937955E-2,-1.8397582E-3,6.076336E-2,-1.1890556E-2],"categories":[],"categories_nodes":[],"categories_segments":[],"categories_sizes":[],"default_left":[0,0,0,0,0,0,0,0,0,0,0,0,0,0,0,0,0,0,0],"id":10,"left_children":[1,3,5,-1,-1,7,9,-1,11,13,-1,-1,-1,15,17,-1,-1,-1,-1],"loss_changes":[1.0479266E4,2.3344727E1,8.0453125E1,0E0,0E0,1.8791103E1,4.736328E0,0E0,2.7419472E-1,1.5955687E1,0E0,0E0,0E0,1.885601E0,2.347086E0,0E0,0E0,0E0,0E0],"parents":[2147483647,0,0,1,1,2,2,5,5,6,6,8,8,9,9,13,13,14,14],"right_children":[2,4,6,-1,-1,8,10,-1,12,14,-1,-1,-1,16,18,-1,-1,-1,-1],"split_conditions":[-3.2722058E0,1.8844265E0,-2.2836616E0,-5.6737542E-2,7.041844E-2,-1.8987945E-1,-1.9498489E0,-5.798502E-2,-1.0757213E0,-1.2716879E0,-7.250566E-2,1.6869038E-2,6.78952E-2,1.9894717E0,1.2338817E0,-6.937955E-2,-1.8397582E-3,6.076336E-2,-1.1890556E-2],"split_indices":[7,108,93,0,0,79,93,0,104,32,0,0,0,108,71,0,0,0,0],"split_type":[0,0,0,0,0,0,0,0,0,0,0,0,0,0,0,0,0,0,0],"sum_hessian":[5.205373E3,2.6153271E3,2.5900461E3,2.9205878E0,2.6124065E3,1.5872618E1,2.5741733E3,3.1611774E0,1.271144E1,2.0062622E1,2.5541108E3,1.0740796E0,1.1637361E1,1.6242117E1,3.820505E0,1.5078611E1,1.163506E0,2.6277742E0,1.1927307E0],"tree_param":{"num_deleted":"0","num_feature":"128","num_nodes":"19","size_leaf_vector":"1"}},{"base_weights":[-6.542461E-3,-1.4031533E0,1.3774453E0,4.988837E-1,-1.4133903E0,-5.5660028E-2,6.9026105E-2,6.449162E-2,-5.5050444E-2,-8.040268E-1,-1.4176611E0,-1.2744052E0,7.50471E-1,-1.1183956E0,-7.099011E-2,-6.797235E-2,-3.962229E-3,6.2038004E-2,-2.5618365E-2,-1.2739357E0,3.5204064E-2,-1.28891785E-2,-1.3150102E0,-6.788261E-2,-1.4753341E-2],"categories":[],"categories_nodes":[],"categories_segments":[],"categories_sizes":[],"default_left":[0,0,0,0,0,0,0,0,0,0,0,0,0,0,0,0,0,0,0,0,0,0,0,0,0],"id":11,"left_children":[1,3,5,7,9,-1,-1,-1,-1,11,13,15,17,19,-1,-1,-1,-1,-1,21,-1,-1,23,-1,-1],"loss_changes":[9.828563E3,4.9984863E1,2.1108398E1,1.9500454E1,5.4125977E0,0E0,0E0,0E0,0E0,1.5458155E1,1.3183594E-2,1.4774475E0,3.8779466E0,7.263983E0,0E0,0E0,0E0,0E0,0E0,5.396347E-1,0E0,0E0,4.6878433E-1,0E0,0E0],"parents":[2147483647,0,0,1,1,2,2,3,3,4,4,9,9,10,10,11,11,12,12,13,13,19,19,22,22],"right_children":[2,4,6,8,10,-1,-1,-1,-1,12,14,16,18,20,-1,-1,-1,-1,-1,22,-1,-1,24,-1,-1],"split_conditions":[3.8189769E0,-2.2836616E0,-3.875107E-1,-1.5423435E0,-1.9498489E0,-5.5660028E-2,6.9026105E-2,6.449162E-2,-5.5050444E-2,-8.5129213E-1,-1.8129501E0,-1.5704063E-1,1.7288743E0,8.6479396E-2,-7.099011E-2,-6.797235E-2,-3.962229E-3,6.2038004E-2,-2.5618365E-2,5.357283E-1,3.5204064E-2,-1.28891785E-2,2.359211E0,-6.788261E-2,-1.4753341E-2],"split_indices":[105,93,31,52,93,0,0,0,0,28,93,1,3,33,0,0,0,0,0,21,0,0,43,0,0],"split_type":[0,0,0,0,0,0,0,0,0,0,0,0,0,0,0,0,0,0,0,0,0,0,0,0,0],"sum_hessian":[5.0828994E3,2.5299055E3,2.552994E3,1.3287866E1,2.5166177E3,2.7047892E0,2.5502893E3,9.021602E0,4.266264E0,1.883275E1,2.497785E3,1.4596231E1,4.2365193E0,2.1461185E1,2.4763237E3,1.3498301E1,1.097931E0,3.064305E0,1.1722143E0,2.0050919E1,1.4102666E0,1.0616844E0,1.8989235E1,1.790937E1,1.0798635E0],"tree_param":{"num_deleted":"0","num_feature":"128","num_nodes":"25","size_leaf_vector":"1"}},{"base_weights":[-3.0725903E-4,-1.3734691E0,1.352048E0,5.036802E-1,-1.3849375E0,-5.4356933E-2,6.775525E-2,-5.421571E-2,1.228262E0,-7.982025E-1,-6.947728E-2,6.453112E-2,1.6205413E-2,-1.2467703E0,9.2675436E-1,-6.647876E-2,-2.6392525E-3,1.7644217E-3,5.941656E-2],"categories":[],"categories_nodes":[],"categories_segments":[],"categories_sizes":[],"default_left":[0,0,0,0,0,0,0,0,0,0,0,0,0,0,0,0,0,0,0],"id":12,"left_children":[1,3,5,7,9,-1,-1,-1,11,13,-1,-1,-1,15,17,-1,-1,-1,-1],"loss_changes":[9.132912E3,5.3231934E1,1.994873E1,1.922607E1,5.449707E0,0E0,0E0,0E0,2.1025085E-1,1.7599922E1,0E0,0E0,0E0,1.6395378E0,1.1146021E0,0E0,0E0,0E0,0E0],"parents":[2147483647,0,0,1,1,2,2,3,3,4,4,8,8,9,9,13,13,14,14],"right_children":[2,4,6,8,10,-1,-1,-1,12,14,-1,-1,-1,16,18,-1,-1,-1,-1],"split_conditions":[3.8189769E0,-2.2836616E0,-3.875107E-1,-6.607948E-2,-1.9498489E0,-5.4356933E-2,6.775525E-2,-5.421571E-2,2.8057992E0,-1.2913013E0,-6.947728E-2,6.453112E-2,1.6205413E-2,-9.082908E-1,-1.383668E0,-6.647876E-2,-2.6392525E-3,1.7644217E-3,5.941656E-2],"split_indices":[105,93,31,79,93,0,0,0,3,32,0,0,0,28,57,0,0,0,0],"split_type":[0,0,0,0,0,0,0,0,0,0,0,0,0,0,0,0,0,0,0],"sum_hessian":[4.916093E3,2.4392742E3,2.4768188E3,1.4551673E1,2.4247224E3,2.6563504E0,2.4741626E3,4.403809E0,1.0147863E1,2.0252678E1,2.4044697E3,9.093256E0,1.0546081E0,1.6292974E1,3.9597027E0,1.51301155E1,1.16286E0,1.155752E0,2.8039508E0],"tree_param":{"num_deleted":"0","num_feature":"128","num_nodes":"19","size_leaf_vector":"1"}},{"base_weights":[-9.4875265E-3,1.3289491E0,-1.3490372E0,-5.1103394E-2,6.659216E-2,4.2100117E-1,-1.3591022E0,-1.0231168E0,6.224398E-2,-1.0035274E0,-6.823265E-2,-8.980825E-3,-5.8573335E-2,-1.1651051E0,5.5745017E-2,4.035849E-1,-1.3203539E0,5.6091186E-2,-4.1661594E-2,-6.7379445E-2,-1.0530446E-2],"categories":[],"categories_nodes":[],"categories_segments":[],"categories_sizes":[],"default_left":[0,0,0,0,0,0,0,0,0,0,0,0,0,0,0,0,0,0,0,0,0],"id":13,"left_children":[1,3,5,-1,-1,7,9,11,-1,13,-1,-1,-1,15,-1,17,19,-1,-1,-1,-1],"loss_changes":[8.576433E3,1.7641602E1,4.3165527E1,0E0,0E0,1.8265434E1,3.322754E0,5.0745106E-1,0E0,1.51008835E1,0E0,0E0,0E0,9.775993E0,0E0,4.6513295E0,7.670708E-1,0E0,0E0,0E0,0E0],"parents":[2147483647,0,0,1,1,2,2,5,5,6,6,7,7,9,9,13,13,15,15,16,16],"right_children":[2,4,6,-1,-1,8,10,12,-1,14,-1,-1,-1,16,-1,18,20,-1,-1,-1,-1],"split_conditions":[-3.2722058E0,1.8844265E0,-2.2836616E0,-5.1103394E-2,6.659216E-2,1.0166975E0,-1.8129501E0,-5.4952824E-1,6.224398E-2,1.4299673E0,-6.823265E-2,-8.980825E-3,-5.8573335E-2,-1.5985733E0,5.5745017E-2,2.0285897E0,-1.6944431E0,5.6091186E-2,-4.1661594E-2,-6.7379445E-2,-1.0530446E-2],"split_indices":[7,108,93,0,0,75,93,78,0,75,0,0,0,121,0,3,111,0,0,0,0],"split_type":[0,0,0,0,0,0,0,0,0,0,0,0,0,0,0,0,0,0,0,0,0],"sum_hessian":[4.7815474E3,2.3917712E3,2.389776E3,2.5076623E0,2.3892637E3,1.3281472E1,2.3764944E3,4.7368155E0,8.544657E0,3.9322174E1,2.3371724E3,1.039141E0,3.6976743E0,3.6953644E1,2.3685322E0,3.183796E0,3.3769848E1,2.0729668E0,1.1108291E0,3.275174E1,1.0181079E0],"tree_param":{"num_deleted":"0","num_feature":"128","num_nodes":"21","size_leaf_vector":"1"}},{"base_weights":[6.6543664E-3,-1.3234096E0,1.3087428E0,3.6926484E-1,-1.3340312E0,6.552126E-2,-4.168963E-2,-5.432051E-2,6.1536252E-2,-9.3244314E-1,-6.702351E-2,3.4218577E-1,-1.2257488E0,-5.2868307E-2,6.8619214E-2,1.8621316E-2,-1.295921E0,-6.599277E-2,-1.48493545E-2],"categories":[],"categories_nodes":[],"categories_segments":[],"categories_sizes":[],"default_left":[0,0,0,0,0,0,0,0,0,0,0,0,0,0,0,0,0,0,0],"id":14,"left_children":[1,3,5,7,9,-1,-1,-1,-1,11,-1,13,15,-1,-1,-1,17,-1,-1],"loss_changes":[7.998768E3,4.1569824E1,9.505127E0,2.01859E1,4.621582E0,0E0,0E0,0E0,0E0,1.5044193E1,0E0,1.3129105E1,4.073513E0,0E0,0E0,0E0,3.4670258E-1,0E0,0E0],"parents":[2147483647,0,0,1,1,2,2,3,3,4,4,9,9,11,11,12,12,16,16],"right_children":[2,4,6,8,10,-1,-1,-1,-1,12,-1,14,16,-1,-1,-1,18,-1,-1],"split_conditions":[3.68686E0,-2.2836616E0,-1.3522583E0,3.1506132E-2,-1.8129501E0,6.552126E-2,-4.168963E-2,-5.432051E-2,6.1536252E-2,-2.1260785E-2,-6.702351E-2,6.5284567E-3,1.1660881E0,-5.2868307E-2,6.8619214E-2,1.8621316E-2,2.021223E0,-6.599277E-2,-1.48493545E-2],"split_indices":[14,93,50,79,93,0,0,0,0,106,0,79,3,0,0,0,108,0,0],"split_type":[0,0,0,0,0,0,0,0,0,0,0,0,0,0,0,0,0,0,0],"sum_hessian":[4.616597E3,2.283757E3,2.33284E3,1.40308895E1,2.2697263E3,2.331398E3,1.442328E0,5.119297E0,8.911593E0,3.8118713E1,2.2316077E3,7.0995016E0,3.101921E1,2.9989614E0,4.10054E0,1.1235266E0,2.9895683E1,2.8882397E1,1.0132864E0],"tree_param":{"num_deleted":"0","num_feature":"128","num_nodes":"19","size_leaf_vector":"1"}},{"base_weights":[2.4359236E-3,-1.3021896E0,1.2878939E0,4.0363944E-1,-1.3124774E0,-4.97099E-1,6.45321E-2,-5.1294472E-2,1.1496866E0,-7.323016E-1,-6.584056E-2,-4.79697E-2,2.0969499E-2,1.4584261E-2,6.0744524E-2,-1.1811091E0,7.068779E-1,-4.481759E-3,-6.2941186E-2,5.8656514E-2,-2.5405074E-2],"categories":[],"categories_nodes":[],"categories_segments":[],"categories_sizes":[],"default_left":[0,0,0,0,0,0,0,0,0,0,0,0,0,0,0,0,0,0,0,0,0],"id":15,"left_children":[1,3,5,7,9,11,-1,-1,13,15,-1,-1,-1,-1,-1,17,19,-1,-1,-1,-1],"loss_changes":[7.481035E3,3.938257E1,1.1663818E1,1.6149736E1,4.569336E0,2.1716938E0,0E0,0E0,1.8801689E-1,1.2829885E1,0E0,0E0,0E0,0E0,0E0,1.1196861E0,3.4512403E0,0E0,0E0,0E0,0E0],"parents":[2147483647,0,0,1,1,2,2,3,3,4,4,5,5,8,8,9,9,15,15,16,16],"right_children":[2,4,6,8,10,12,-1,-1,14,16,-1,-1,-1,-1,-1,18,20,-1,-1,-1,-1],"split_conditions":[3.8189769E0,-2.2836616E0,2.823139E0,-6.607948E-2,-1.9498489E0,-7.925092E0,6.45321E-2,-5.1294472E-2,1.3381784E0,-8.6926204E-1,-6.584056E-2,-4.79697E-2,2.0969499E-2,1.4584261E-2,6.0744524E-2,1.5471666E0,3.7798518E-1,-4.481759E-3,-6.2941186E-2,5.8656514E-2,-2.5405074E-2],"split_indices":[105,93,108,79,93,24,0,0,43,28,0,0,0,0,0,124,56,0,0,0,0],"split_type":[0,0,0,0,0,0,0,0,0,0,0,0,0,0,0,0,0,0,0,0,0],"sum_hessian":[4.4588535E3,2.2129216E3,2.2459316E3,1.3036888E1,2.1998848E3,3.176028E0,2.2427556E3,4.341973E0,8.694915E0,1.7570545E1,2.1823142E3,2.0800138E0,1.0960141E0,1.0006781E0,7.694237E0,1.3530411E1,4.0401344E0,1.0424842E0,1.2487927E1,2.9445848E0,1.0955498E0],"tree_param":{"num_deleted":"0","num_feature":"128","num_nodes":"21","size_leaf_vector":"1"}},{"base_weights":[-3.6754255E-4,-1.280512E0,1.2702996E0,4.3920287E-1,-1.2927037E0,6.362397E-2,-4.3951027E-2,-5.217542E-2,6.0316022E-2,-8.024422E-1,-6.483846E-2,7.045221E-1,-1.1342732E0,5.1676866E-2,-7.5469683E-3,-6.26554E-2,1.4499788E-2],"categories":[],"categories_nodes":[],"categories_segments":[],"categories_sizes":[],"default_left":[0,0,0,0,0,0,0,0,0,0,0,0,0,0,0,0,0],"id":16,"left_children":[1,3,5,7,9,-1,-1,-1,-1,11,-1,13,15,-1,-1,-1,-1],"loss_changes":[6.990165E3,4.5449707E1,1.12229E1,1.9247843E1,3.1967773E0,0E0,0E0,0E0,0E0,1.0853684E1,0E0,1.3508985E0,3.217247E0,0E0,0E0,0E0,0E0],"parents":[2147483647,0,0,1,1,2,2,3,3,4,4,9,9,11,11,12,12],"right_children":[2,4,6,8,10,-1,-1,-1,-1,12,-1,14,16,-1,-1,-1,-1],"split_conditions":[3.68686E0,-2.2836616E0,-1.3522583E0,3.1506132E-2,-1.9498489E0,6.362397E-2,-4.3951027E-2,-5.217542E-2,6.0316022E-2,1.4746599E0,-6.483846E-2,-8.22563E-1,1.3133034E0,5.1676866E-2,-7.5469683E-3,-6.26554E-2,1.4499788E-2],"split_indices":[14,93,50,79,93,0,0,0,0,124,0,8,75,0,0,0,0],"split_type":[0,0,0,0,0,0,0,0,0,0,0,0,0,0,0,0,0],"sum_hessian":[4.29531E3,2.1396716E3,2.1556384E3,1.4815735E1,2.124856E3,2.1538618E3,1.776536E0,4.9288282E0,9.886907E0,1.9106823E1,2.105749E3,3.2453554E0,1.5861467E1,2.1935432E0,1.0518123E0,1.4750892E1,1.1105752E0],"tree_param":{"num_deleted":"0","num_feature":"128","num_nodes":"17","size_leaf_vector":"1"}},{"base_weights":[3.4351342E-3,-1.2623107E0,1.2531319E0,3.9502823E-1,-1.2727164E0,-4.4425827E-2,1.2553827E0,-5.5541344E-2,5.8575567E-2,-8.855367E-1,-6.395578E-2,1.8463321E-2,6.278177E-2,-1.0691944E0,5.7114698E-2,-1.2040495E0,3.855603E-2,-6.2430322E-2,-5.257781E-3],"categories":[],"categories_nodes":[],"categories_segments":[],"categories_sizes":[],"default_left":[0,0,0,0,0,0,0,0,0,0,0,0,0,0,0,0,0,0,0],"id":17,"left_children":[1,3,5,7,9,-1,11,-1,-1,13,-1,-1,-1,15,-1,17,-1,-1,-1],"loss_changes":[6.5862036E3,3.6177002E1,1.1214355E1,1.7285141E1,3.9611816E0,0E0,5.3710938E-3,0E0,0E0,1.4880629E1,0E0,0E0,0E0,9.402946E0,0E0,1.4456177E0,0E0,0E0,0E0],"parents":[2147483647,0,0,1,1,2,2,3,3,4,4,6,6,9,9,13,13,15,15],"right_children":[2,4,6,8,10,-1,12,-1,-1,14,-1,-1,-1,16,-1,18,-1,-1,-1],"split_conditions":[3.68686E0,-2.2836616E0,-6.25479E-2,-6.607948E-2,-1.8129501E0,-4.4425827E-2,7.759725E-1,-5.5541344E-2,5.8575567E-2,1.3612686E0,-6.395578E-2,1.8463321E-2,6.278177E-2,-9.905027E-1,5.7114698E-2,-1.6274128E0,3.855603E-2,-6.2430322E-2,-5.257781E-3],"split_indices":[14,93,27,79,93,0,71,0,0,75,0,0,0,32,0,111,0,0,0],"split_type":[0,0,0,0,0,0,0,0,0,0,0,0,0,0,0,0,0,0,0],"sum_hessian":[4.1617437E3,2.0675906E3,2.0941533E3,1.2669882E1,2.0549207E3,1.7851228E0,2.0923682E3,4.1639776E0,8.505904E0,3.567644E1,2.0192441E3,1.0134339E0,2.0913547E3,3.3147095E1,2.5293467E0,3.1206104E1,1.940991E0,2.9859163E1,1.3469414E0],"tree_param":{"num_deleted":"0","num_feature":"128","num_nodes":"19","size_leaf_vector":"1"}},{"base_weights":[6.0750515E-4,-1.2460301E0,1.2379833E0,4.9005932E-1,-1.2571602E0,-4.153155E-2,6.2000062E-2,-4.751855E-2,5.862975E-2,-7.5728464E-1,-6.305208E-2,4.4766445E-2,-1.0924174E0,-5.5014538E-3,-6.056708E-2],"categories":[],"categories_nodes":[],"categories_segments":[],"categories_sizes":[],"default_left":[0,0,0,0,0,0,0,0,0,0,0,0,0,0,0],"id":18,"left_children":[1,3,5,7,9,-1,-1,-1,-1,11,-1,-1,13,-1,-1],"loss_changes":[6.1829307E3,3.9196777E1,9.42627E0,1.4326374E1,2.8945312E0,0E0,0E0,0E0,0E0,1.0831617E1,0E0,0E0,1.647438E0,0E0,0E0],"parents":[2147483647,0,0,1,1,2,2,3,3,4,4,9,9,12,12],"right_children":[2,4,6,8,10,-1,-1,-1,-1,12,-1,-1,14,-1,-1],"split_conditions":[3.8189769E0,-2.2836616E0,-3.875107E-1,-6.607948E-2,-1.9498489E0,-4.153155E-2,6.2000062E-2,-4.751855E-2,5.862975E-2,1.4281778E0,-6.305208E-2,4.4766445E-2,1.5625193E0,-5.5014538E-3,-6.056708E-2],"split_indices":[105,93,31,79,93,0,0,0,0,124,0,0,3,0,0],"split_type":[0,0,0,0,0,0,0,0,0,0,0,0,0,0,0],"sum_hessian":[4.0062288E3,1.9956422E3,2.0105865E3,1.2438477E1,1.9832037E3,1.5590978E0,2.0090275E3,3.8728216E0,8.565655E0,1.6791166E1,1.9664126E3,2.5491545E0,1.4242012E1,1.7458025E0,1.249621E1],"tree_param":{"num_deleted":"0","num_feature":"128","num_nodes":"15","size_leaf_vector":"1"}},{"base_weights":[8.7402825E-4,1.2229359E0,-1.2285585E0,-4.390804E-2,6.127834E-2,4.6866357E-1,-1.2393895E0,-4.8737615E-2,5.6836355E-2,-8.5325974E-1,-6.2285315E-2,-1.1850822E0,1.8476225E-1,-6.1195772E-2,-9.019733E-3,1.348146E0,-4.6958085E-2,2.6954878E-2,7.863563E-2],"categories":[],"categories_nodes":[],"categories_segments":[],"categories_sizes":[],"default_left":[0,0,0,0,0,0,0,0,0,0,0,0,0,0,0,0,0,0,0],"id":19,"left_children":[1,3,5,-1,-1,7,9,-1,-1,11,-1,13,15,-1,-1,17,-1,-1,-1],"loss_changes":[5.7808037E3,1.1741943E1,3.5838867E1,0E0,0E0,1.3535822E1,3.5864258E0,0E0,0E0,1.1880054E1,0E0,7.8538895E-1,1.312045E1,0E0,0E0,3.6128044E-2,0E0,0E0,0E0],"parents":[2147483647,0,0,1,1,2,2,5,5,6,6,9,9,11,11,12,12,15,15],"right_children":[2,4,6,-1,-1,8,10,-1,-1,12,-1,14,16,-1,-1,18,-1,-1,-1],"split_conditions":[-3.2722058E0,1.4084291E0,-2.2836616E0,-4.390804E-2,6.127834E-2,3.1506132E-2,-1.8129501E0,-4.8737615E-2,5.6836355E-2,-2.186008E-1,-6.2285315E-2,-1.6184577E0,3.79516E-1,-6.1195772E-2,-9.019733E-3,5.953225E-1,-4.6958085E-2,2.6954878E-2,7.863563E-2],"split_indices":[7,108,93,0,0,79,93,0,0,33,0,111,16,0,0,35,0,0,0],"split_type":[0,0,0,0,0,0,0,0,0,0,0,0,0,0,0,0,0,0,0],"sum_hessian":[3.845603E3,1.9285852E3,1.9170177E3,1.9955556E0,1.9265897E3,1.18879795E1,1.9051298E3,3.6160603E0,8.271919E0,3.2855335E1,1.8722744E3,2.4789312E1,8.066024E0,2.3656727E1,1.1325848E0,3.8654072E0,4.200617E0,1.57864E0,2.2867672E0],"tree_param":{"num_deleted":"0","num_feature":"128","num_nodes":"19","size_leaf_vector":"1"}},{"base_weights":[-4.1887695E-3,-1.2172344E0,1.209099E0,3.2776153E-1,-1.2269559E0,-4.400026E-2,6.0591705E-2,-5.391406E-2,5.561086E-2,-1.2275871E0,-4.6231207E-3,-9.853184E-1,-6.156211E-2,1.7894036E-1,-1.1834929E0,5.9346844E-2,-4.517719E-2,-1.0625287E-2,-6.0741473E-2],"categories":[],"categories_nodes":[],"categories_segments":[],"categories_sizes":[],"default_left":[0,0,0,0,0,0,0,0,0,0,0,0,0,0,0,0,0,0,0],"id":20,"left_children":[1,3,5,7,9,-1,-1,-1,-1,11,-1,13,-1,15,17,-1,-1,-1,-1],"loss_changes":[5.438944E3,2.8157715E1,1.1622559E1,1.4814664E1,1.2016602E0,0E0,0E0,0E0,0E0,4.1210938E-1,0E0,7.661312E0,0E0,7.1447053E0,5.8535385E-1,0E0,0E0,0E0,0E0],"parents":[2147483647,0,0,1,1,2,2,3,3,4,4,9,9,11,11,13,13,14,14],"right_children":[2,4,6,8,10,-1,-1,-1,-1,12,-1,14,-1,16,18,-1,-1,-1,-1],"split_conditions":[3.68686E0,-2.2836616E0,-6.25479E-2,3.1506132E-2,5.887543E-1,-4.400026E-2,6.0591705E-2,-5.391406E-2,5.561086E-2,-1.8129501E0,-4.6231207E-3,1.4281778E0,-6.156211E-2,-2.1260785E-2,1.2452688E0,5.9346844E-2,-4.517719E-2,-1.0625287E-2,-6.0741473E-2],"split_indices":[14,93,27,79,36,0,0,0,0,93,0,124,0,106,3,0,0,0,0],"split_type":[0,0,0,0,0,0,0,0,0,0,0,0,0,0,0,0,0,0,0],"sum_hessian":[3.6935034E3,1.8469344E3,1.8465688E3,1.1344199E1,1.8355902E3,1.9949027E0,1.844574E3,3.928419E0,7.41578E0,1.8344875E3,1.1027011E0,3.1287321E1,1.8032002E3,4.565056E0,2.6722265E1,2.3138926E0,2.251163E0,1.0787183E0,2.5643547E1],"tree_param":{"num_deleted":"0","num_feature":"128","num_nodes":"19","size_leaf_vector":"1"}},{"base_weights":[3.4812146E-3,-1.1980885E0,1.1977255E0,-1.2057978E0,1.9048113E-1,-3.6917724E-2,5.9976663E-2,-1.2138821E0,-8.222464E-1,8.50867E-1,-4.4475332E-2,-6.073035E-2,-1.6085027E-2,9.430161E-1,-1.0783064E0,5.1402684E-2,-3.6732014E-3,-2.5148531E-3,6.057055E-2,9.528627E-2,-1.1562604E0,-3.3288073E-2,3.901818E-2,-1.1731433E0,-1.558002E-2,-5.953875E-2,-1.6066505E-2],"categories":[],"categories_nodes":[],"categories_segments":[],"categories_sizes":[],"default_left":[0,0,0,0,0,0,0,0,0,0,0,0,0,0,0,0,0,0,0,0,0,0,0,0,0,0,0],"id":21,"left_children":[1,3,5,7,9,-1,-1,11,13,15,-1,-1,-1,17,19,-1,-1,-1,-1,21,23,-1,-1,25,-1,-1,-1],"loss_changes":[5.0814556E3,1.9125732E1,7.1015625E0,4.4455566E0,8.323723E0,0E0,0E0,7.1972656E-1,1.8798388E1,1.2375202E0,0E0,0E0,0E0,1.5317225E0,3.2958794E0,0E0,0E0,0E0,0E0,2.1320353E0,1.011734E-1,0E0,0E0,9.3860626E-2,0E0,0E0,0E0],"parents":[2147483647,0,0,1,1,2,2,3,3,4,4,7,7,8,8,9,9,13,13,14,14,19,19,20,20,23,23],"right_children":[2,4,6,8,10,-1,-1,12,14,16,-1,-1,-1,18,20,-1,-1,-1,-1,22,24,-1,-1,26,-1,-1,-1],"split_conditions":[3.8189769E0,2.0901477E0,-3.875107E-1,2.5258777E0,-1.5673223E0,-3.6917724E-2,5.9976663E-2,5.621876E-1,-1.5423435E0,7.0740634E-1,-4.4475332E-2,-6.073035E-2,-1.6085027E-2,-8.0075675E-1,-2.1595064E-1,5.1402684E-2,-3.6732014E-3,-2.5148531E-3,6.057055E-2,-3.0608562E-1,-1.2008603E-1,-3.3288073E-2,3.901818E-2,2.6459498E0,-1.558002E-2,-5.953875E-2,-1.6066505E-2],"split_indices":[105,120,31,105,50,0,0,36,52,87,0,0,0,62,106,0,0,0,0,1,36,0,0,124,0,0,0],"split_type":[0,0,0,0,0,0,0,0,0,0,0,0,0,0,0,0,0,0,0,0,0,0,0,0,0,0,0],"sum_hessian":[3.5391633E3,1.7641694E3,1.774994E3,1.7545598E3,9.609618E0,1.2756734E0,1.7737183E3,1.7162213E3,3.8338516E1,6.0948925E0,3.5147252E0,1.7144669E3,1.7543705E0,4.5168476E0,3.382167E1,5.0203238E0,1.0745686E0,1.1336983E0,3.3831491E0,2.092772E0,3.1728897E1,1.0047724E0,1.0879997E0,3.0725863E1,1.0030338E0,2.9712902E1,1.0129601E0],"tree_param":{"num_deleted":"0","num_feature":"128","num_nodes":"27","size_leaf_vector":"1"}},{"base_weights":[-6.7097857E-4,-1.1867636E0,1.1855221E0,4.0080386E-1,-1.1977624E0,-4.006317E-2,5.9392717E-2,-4.9103834E-2,9.953137E-1,-8.101756E-1,-6.019891E-2,5.568994E-2,9.636328E-4,4.096326E-1,-1.096044E0,-4.3689344E-2,6.5563686E-2,1.0685094E-2,-5.893258E-2],"categories":[],"categories_nodes":[],"categories_segments":[],"categories_sizes":[],"default_left":[0,0,0,0,0,0,0,0,0,0,0,0,0,0,0,0,0,0,0],"id":22,"left_children":[1,3,5,7,9,-1,-1,-1,11,13,-1,-1,-1,15,17,-1,-1,-1,-1],"loss_changes":[4.804322E3,3.0294434E1,8.862793E0,1.1251811E1,3.1101074E0,0E0,0E0,0E0,1.0466976E0,1.0849525E1,0E0,0E0,0E0,8.541062E0,2.8956757E0,0E0,0E0,0E0,0E0],"parents":[2147483647,0,0,1,1,2,2,3,3,4,4,8,8,9,9,13,13,14,14],"right_children":[2,4,6,8,10,-1,-1,-1,12,14,-1,-1,-1,16,18,-1,-1,-1,-1],"split_conditions":[3.8189769E0,-2.2836616E0,-3.875107E-1,-2.859348E-1,-1.8129501E0,-4.006317E-2,5.9392717E-2,-4.9103834E-2,-2.0329075E0,1.4399258E0,-6.019891E-2,5.568994E-2,9.636328E-4,8.694354E-1,-1.07331455E-1,-4.3689344E-2,6.5563686E-2,1.0685094E-2,-5.893258E-2],"split_indices":[105,93,31,79,93,0,0,0,5,124,0,0,0,68,49,0,0,0,0],"split_type":[0,0,0,0,0,0,0,0,0,0,0,0,0,0,0,0,0,0,0],"sum_hessian":[3.4127437E3,1.7064438E3,1.7062998E3,1.1497124E1,1.6949467E3,1.5989704E0,1.7047008E3,3.2606544E0,8.236469E0,2.8826252E1,1.6661205E3,7.2189913E0,1.0174785E0,5.3907647E0,2.3435488E1,2.2371871E0,3.1535778E0,1.2962626E0,2.2139225E1],"tree_param":{"num_deleted":"0","num_feature":"128","num_nodes":"19","size_leaf_vector":"1"}},{"base_weights":[-1.3731581E-3,-1.1735778E0,1.1743867E0,4.471404E-1,-1.1843121E0,-4.0819954E-2,5.8848437E-2,-4.7730852E-2,5.2420385E-2,-7.6240814E-1,-5.9598323E-2,3.991689E-1,-1.0622816E0,-4.580688E-2,6.440958E-2,2.0953668E-2,-1.1404858E0,-1.3029362E-2,-5.834883E-2],"categories":[],"categories_nodes":[],"categories_segments":[],"categories_sizes":[],"default_left":[0,0,0,0,0,0,0,0,0,0,0,0,0,0,0,0,0,0,0],"id":23,"left_children":[1,3,5,7,9,-1,-1,-1,-1,11,-1,13,15,-1,-1,-1,17,-1,-1],"loss_changes":[4.561336E3,2.9361572E1,9.453613E0,1.0803062E1,4.4089355E0,0E0,0E0,0E0,0E0,1.1611187E1,0E0,9.736087E0,3.4668293E0,0E0,0E0,0E0,2.733879E-1,0E0,0E0],"parents":[2147483647,0,0,1,1,2,2,3,3,4,4,9,9,11,11,12,12,16,16],"right_children":[2,4,6,8,10,-1,-1,-1,-1,12,-1,14,16,-1,-1,-1,18,-1,-1],"split_conditions":[3.8189769E0,-2.2836616E0,-3.875107E-1,-1.8987945E-1,-1.8129501E0,-4.0819954E-2,5.8848437E-2,-4.7730852E-2,5.2420385E-2,-2.1260785E-2,-5.9598323E-2,4.3206643E-2,1.1552486E0,-4.580688E-2,6.440958E-2,2.0953668E-2,-1.3335297E0,-1.3029362E-2,-5.834883E-2],"split_indices":[105,93,31,79,93,0,0,0,0,106,0,79,3,0,0,0,115,0,0],"split_type":[0,0,0,0,0,0,0,0,0,0,0,0,0,0,0,0,0,0,0],"sum_hessian":[3.3075576E3,1.6562839E3,1.6512738E3,1.0630135E1,1.6456538E3,1.7304988E0,1.6495432E3,3.014542E0,7.6155925E0,3.1116907E1,1.6145369E3,6.3169017E0,2.4800005E1,2.5353537E0,3.7815483E0,1.0250299E0,2.3774975E1,1.0115921E0,2.2763382E1],"tree_param":{"num_deleted":"0","num_feature":"128","num_nodes":"19","size_leaf_vector":"1"}},{"base_weights":[1.4565111E-3,-1.1636136E0,1.1644993E0,3.9485025E-1,-1.1745627E0,5.8327224E-2,-3.6239717E-2,-4.3220736E-2,5.3293567E-2,-7.8354347E-1,-5.9067376E-2,-9.574803E-1,5.582676E-2,-1.1043776E0,3.7472133E-2,-4.9554687E-3,-5.712775E-2],"categories":[],"categories_nodes":[],"categories_segments":[],"categories_sizes":[],"default_left":[0,0,0,0,0,0,0,0,0,0,0,0,0,0,0,0,0],"id":24,"left_children":[1,3,5,7,9,-1,-1,-1,-1,11,-1,13,-1,15,-1,-1,-1],"loss_changes":[4.2726836E3,2.7343018E1,6.942383E0,1.0839946E1,3.2250977E0,0E0,0E0,0E0,0E0,1.0869322E1,0E0,7.7744484E0,0E0,8.8129616E-1,0E0,0E0,0E0],"parents":[2147483647,0,0,1,1,2,2,3,3,4,4,9,9,11,11,13,13],"right_children":[2,4,6,8,10,-1,-1,-1,-1,12,-1,14,-1,16,-1,-1,-1],"split_conditions":[3.68686E0,-2.2836616E0,-2.3787453E0,3.1506132E-2,-1.8129501E0,5.8327224E-2,-3.6239717E-2,-4.3220736E-2,5.3293567E-2,1.5136073E0,-5.9067376E-2,-9.905027E-1,5.582676E-2,-1.8047822E-1,3.7472133E-2,-4.9554687E-3,-5.712775E-2],"split_indices":[14,93,7,79,93,0,0,0,0,75,0,32,0,49,0,0,0],"split_type":[0,0,0,0,0,0,0,0,0,0,0,0,0,0,0,0,0],"sum_hessian":[3.1512107E3,1.574233E3,1.5769775E3,1.0738072E1,1.563495E3,1.5756545E3,1.3230288E0,3.632663E0,7.105409E0,2.8653395E1,1.5348416E3,2.6704865E1,1.9485308E0,2.4913792E1,1.7910721E0,1.0431136E0,2.3870678E1],"tree_param":{"num_deleted":"0","num_feature":"128","num_nodes":"17","size_leaf_vector":"1"}},{"base_weights":[-5.552812E-4,-1.1548034E0,1.1549467E0,-2.6916716E-1,-5.8431424E-2,-3.528027E-2,5.785003E-2,9.396098E-1,-9.359338E-1,-1.0479151E-2,5.5627804E-2,1.2737277E-2,-1.0424883E0,-8.373842E-3,-5.4642677E-2],"categories":[],"categories_nodes":[],"categories_segments":[],"categories_sizes":[],"default_left":[0,0,0,0,0,0,0,0,0,0,0,0,0,0,0],"id":25,"left_children":[1,3,5,7,-1,-1,-1,9,11,-1,-1,-1,13,-1,-1],"loss_changes":[4.0108423E3,1.8105713E1,6.558716E0,2.0563633E1,0E0,0E0,0E0,2.0579882E0,2.3261547E0,0E0,0E0,0E0,4.8259735E-1,0E0,0E0],"parents":[2147483647,0,0,1,1,2,2,3,3,7,7,8,8,12,12],"right_children":[2,4,6,8,-1,-1,-1,10,12,-1,-1,-1,14,-1,-1],"split_conditions":[3.68686E0,-1.9498489E0,-6.25479E-2,6.772589E-2,-5.8431424E-2,-3.528027E-2,5.785003E-2,1.6780583E0,-1.7359936E-1,-1.0479151E-2,5.5627804E-2,1.2737277E-2,-1.2838615E0,-8.373842E-3,-5.4642677E-2],"split_indices":[14,93,27,49,0,0,0,108,106,0,0,0,115,0,0],"split_type":[0,0,0,0,0,0,0,0,0,0,0,0,0,0,0],"sum_hessian":[3.0052239E3,1.503428E3,1.5017959E3,2.3422955E1,1.480005E3,1.2782289E0,1.5005177E3,8.181522E0,1.5241431E1,1.0424978E0,7.1390247E0,1.1376911E0,1.410374E1,1.0030295E0,1.3100711E1],"tree_param":{"num_deleted":"0","num_feature":"128","num_nodes":"15","size_leaf_vector":"1"}},{"base_weights":[4.805602E-3,-1.1429228E0,1.145461E0,2.6671872E-1,-1.1532708E0,5.740413E-2,-3.848508E-2,-4.6120863E-2,9.51313E-1,-7.293194E-1,-5.805395E-2,5.195232E-2,9.2902E-3,3.4112006E-1,-1.0532186E0,-4.412608E-2,1.0944828E0,1.3925943E-2,-5.6584816E-2,6.419413E-2,8.837345E-3],"categories":[],"categories_nodes":[],"categories_segments":[],"categories_sizes":[],"default_left":[0,0,0,0,0,0,0,0,0,0,0,0,0,0,0,0,0,0,0,0,0],"id":26,"left_children":[1,3,5,7,9,-1,-1,-1,11,13,-1,-1,-1,15,17,-1,19,-1,-1,-1,-1],"loss_changes":[3.7975957E3,2.1399414E1,8.188599E0,1.0116613E1,3.9052734E0,0E0,0E0,0E0,3.237357E-1,1.0292788E1,0E0,0E0,0E0,7.7974544E0,2.6395054E0,0E0,6.479373E-1,0E0,0E0,0E0,0E0],"parents":[2147483647,0,0,1,1,2,2,3,3,4,4,8,8,9,9,13,13,14,14,16,16],"right_children":[2,4,6,8,10,-1,-1,-1,12,14,-1,-1,-1,16,18,-1,20,-1,-1,-1,-1],"split_conditions":[3.68686E0,-2.2836616E0,-1.3522583E0,8.526689E-1,-1.8129501E0,5.740413E-2,-3.848508E-2,-4.6120863E-2,9.514835E-1,-2.1260785E-2,-5.805395E-2,5.195232E-2,9.2902E-3,9.4581246E-1,-1.8237554E0,-4.412608E-2,-1.1203524E0,1.3925943E-2,-5.6584816E-2,6.419413E-2,8.837345E-3],"split_indices":[14,93,50,75,93,0,0,0,92,106,0,0,0,118,46,0,52,0,0,0,0],"split_type":[0,0,0,0,0,0,0,0,0,0,0,0,0,0,0,0,0,0,0,0,0],"sum_hessian":[2.8987825E3,1.4449104E3,1.4538721E3,1.0349196E1,1.4345612E3,1.4522845E3,1.587527E0,3.654303E0,6.694894E0,2.765041E1,1.4069108E3,5.6859155E0,1.0089784E0,6.4107275E0,2.1239681E1,2.377559E0,4.0331683E0,1.0401256E0,2.0199556E1,3.0124917E0,1.020677E0],"tree_param":{"num_deleted":"0","num_feature":"128","num_nodes":"21","size_leaf_vector":"1"}},{"base_weights":[1.9256239E-3,-1.135478E0,1.1367947E0,2.3373684E-1,-1.1446437E0,-4.05379E-2,5.700044E-2,4.76883E-2,-4.8317213E-2,-7.468459E-1,-5.756239E-2,4.0809253E-1,-1.0562059E0,6.1094463E-2,-4.0604405E-2,1.8164268E-3,-5.5989917E-2],"categories":[],"categories_nodes":[],"categories_segments":[],"categories_sizes":[],"default_left":[0,0,0,0,0,0,0,0,0,0,0,0,0,0,0,0,0],"id":27,"left_children":[1,3,5,7,9,-1,-1,-1,-1,11,-1,13,15,-1,-1,-1,-1],"loss_changes":[3.5874053E3,1.7687256E1,9.632446E0,9.614795E0,2.7631836E0,0E0,0E0,0E0,0E0,9.494184E0,0E0,7.0299835E0,1.450079E0,0E0,0E0,0E0,0E0],"parents":[2147483647,0,0,1,1,2,2,3,3,4,4,9,9,11,11,12,12],"right_children":[2,4,6,8,10,-1,-1,-1,-1,12,-1,14,16,-1,-1,-1,-1],"split_conditions":[3.8189769E0,-2.2836616E0,-3.875107E-1,4.8242724E-1,-1.8129501E0,-4.05379E-2,5.700044E-2,4.76883E-2,-4.8317213E-2,-1.3276829E0,-5.756239E-2,2.6347739E-1,-6.9713414E-1,6.1094463E-2,-4.0604405E-2,1.8164268E-3,-5.5989917E-2],"split_indices":[105,93,31,49,93,0,0,0,0,52,0,16,56,0,0,0,0],"split_type":[0,0,0,0,0,0,0,0,0,0,0,0,0,0,0,0,0],"sum_hessian":[2.7772017E3,1.3870518E3,1.3901499E3,9.060406E0,1.3779913E3,1.8764747E0,1.3882734E3,5.791093E0,3.2693126E0,2.4366257E1,1.353625E3,5.080393E0,1.9285864E1,3.0468817E0,2.0335112E0,1.0843956E0,1.820147E1],"tree_param":{"num_deleted":"0","num_feature":"128","num_nodes":"17","size_leaf_vector":"1"}},{"base_weights":[5.616179E-4,-1.1268324E0,1.1297374E0,3.5978642E-1,-1.1370283E0,5.6608446E-2,-1.7916618E-2,-4.1839607E-2,4.8665624E-2,-6.7299163E-1,-5.704364E-2,6.634818E-1,-5.1117785E-2,3.8903277E-2,1.0348597E-2],"categories":[],"categories_nodes":[],"categories_segments":[],"categories_sizes":[],"default_left":[0,0,0,0,0,0,0,0,0,0,0,0,0,0,0],"id":28,"left_children":[1,3,5,7,9,-1,-1,-1,-1,11,-1,13,-1,-1,-1],"loss_changes":[3.3746658E3,2.0515625E1,5.197754E0,8.005627E0,1.5828857E0,0E0,0E0,0E0,0E0,6.872163E0,0E0,1.4483929E-2,0E0,0E0,0E0],"parents":[2147483647,0,0,1,1,2,2,3,3,4,4,9,9,11,11],"right_children":[2,4,6,8,10,-1,-1,-1,-1,12,-1,14,-1,-1,-1],"split_conditions":[3.8189769E0,-2.2836616E0,7.6466125E-1,8.526689E-1,-1.9498489E0,5.6608446E-2,-1.7916618E-2,-4.1839607E-2,4.8665624E-2,1.3684161E0,-5.704364E-2,-1.64995E0,-5.1117785E-2,3.8903277E-2,1.0348597E-2],"split_indices":[105,93,0,75,93,0,0,0,0,124,0,4,0,0,0],"split_type":[0,0,0,0,0,0,0,0,0,0,0,0,0,0,0],"sum_hessian":[2.648901E3,1.3254973E3,1.3234037E3,8.795466E0,1.3167018E3,1.3214835E3,1.9201663E0,2.8578358E0,5.93763E0,1.2265454E1,1.3044364E3,2.3555002E0,9.909954E0,1.3198419E0,1.0356582E0],"tree_param":{"num_deleted":"0","num_feature":"128","num_nodes":"15","size_leaf_vector":"1"}},{"base_weights":[3.531461E-3,-1.1148735E0,1.1223489E0,3.50046E-1,-1.125635E0,1.1242547E0,-3.1138772E-2,-4.4830985E-2,9.4536775E-1,-6.441755E-1,-1.1345526E0,5.624176E-2,9.777345E-3,1.3356566E-2,5.0662525E-2,-1.0080061E0,2.5785255E-1,-5.67676E-2,-2.1527033E-2,-5.4675903E-2,-9.677142E-4,1.0885433E0,-3.7445247E-2,6.7011625E-2,3.9001217E-3],"categories":[],"categories_nodes":[],"categories_segments":[],"categories_sizes":[],"default_left":[0,0,0,0,0,0,0,0,0,0,0,0,0,0,0,0,0,0,0,0,0,0,0,0,0],"id":29,"left_children":[1,3,5,7,9,11,-1,-1,13,15,17,-1,-1,-1,-1,19,21,-1,-1,-1,-1,23,-1,-1,-1],"loss_changes":[3.1971738E3,2.0537842E1,4.9483643E0,8.329494E0,4.7163086E0,4.6813965E-1,0E0,0E0,6.5871716E-2,8.5909815E0,2.1154785E-1,0E0,0E0,0E0,0E0,1.5253334E0,7.5829883E0,0E0,0E0,0E0,0E0,1.1268644E0,0E0,0E0,0E0],"parents":[2147483647,0,0,1,1,2,2,3,3,4,4,5,5,8,8,9,9,10,10,15,15,16,16,21,21],"right_children":[2,4,6,8,10,12,-1,-1,14,16,18,-1,-1,-1,-1,20,22,-1,-1,-1,-1,24,-1,-1,-1],"split_conditions":[3.8189769E0,-2.2836616E0,-3.208215E-2,-6.607948E-2,-1.8129501E0,2.6847476E-1,-3.1138772E-2,-4.4830985E-2,4.322288E-1,-2.2910891E-1,3.0323899E0,5.624176E-2,9.777345E-3,1.3356566E-2,5.0662525E-2,-6.9727135E-1,-8.889269E-1,-5.67676E-2,-2.1527033E-2,-5.4675903E-2,-9.677142E-4,-4.1619763E-1,-3.7445247E-2,6.7011625E-2,3.9001217E-3],"split_indices":[105,93,1,79,93,86,0,0,82,33,98,0,0,0,0,28,121,0,0,0,0,78,0,0,0],"split_type":[0,0,0,0,0,0,0,0,0,0,0,0,0,0,0,0,0,0,0,0,0,0,0,0,0],"sum_hessian":[2.5531E3,1.2767871E3,1.276313E3,9.081098E0,1.267706E3,1.275276E3,1.0369122E0,2.771396E0,6.3097014E0,2.438524E1,1.2433208E3,1.2742684E3,1.0075985E0,1.0230722E0,5.2866287E0,1.7292763E1,7.0924773E0,1.2412985E3,2.0222843E0,1.5818497E1,1.4742668E0,3.8415332E0,3.250944E0,2.8143325E0,1.0272007E0],"tree_param":{"num_deleted":"0","num_feature":"128","num_nodes":"25","size_leaf_vector":"1"}},{"base_weights":[2.298632E-3,1.1159486E0,-1.1075022E0,-3.0839583E-2,5.5898536E-2,3.0039403E-1,-1.1183041E0,-4.612967E-2,5.059579E-2,-6.4543086E-1,-5.635178E-2,3.538365E-1,-9.744878E-1,1.0059267E0,-3.9728325E-2,1.1383458E-2,-5.430257E-2,5.294079E-3,6.1924066E-2],"categories":[],"categories_nodes":[],"categories_segments":[],"categories_sizes":[],"default_left":[0,0,0,0,0,0,0,0,0,0,0,0,0,0,0,0,0,0,0],"id":30,"left_children":[1,3,5,-1,-1,7,9,-1,-1,11,-1,13,15,17,-1,-1,-1,-1,-1],"loss_changes":[3.015679E3,4.956909E0,1.8921875E1,0E0,0E0,9.716718E0,4.281006E0,0E0,0E0,8.3456135E0,0E0,5.8625355E0,2.7379322E0,8.638897E-1,0E0,0E0,0E0,0E0,0E0],"parents":[2147483647,0,0,1,1,2,2,5,5,6,6,9,9,11,11,12,12,13,13],"right_children":[2,4,6,-1,-1,8,10,-1,-1,12,-1,14,16,18,-1,-1,-1,-1,-1],"split_conditions":[-3.2722058E0,1.8844265E0,-2.2836616E0,-3.0839583E-2,5.5898536E-2,-6.607948E-2,-1.8129501E0,-4.612967E-2,5.059579E-2,-1.3276829E0,-5.635178E-2,1.7288743E0,-1.5985733E0,-1.5478977E0,-3.9728325E-2,1.1383458E-2,-5.430257E-2,5.294079E-3,6.1924066E-2],"split_indices":[7,108,93,0,0,79,93,0,0,52,0,3,121,32,0,0,0,0,0],"split_type":[0,0,0,0,0,0,0,0,0,0,0,0,0,0,0,0,0,0,0],"sum_hessian":[2.4380085E3,1.2168914E3,1.2211173E3,1.0641085E0,1.2158273E3,9.093439E0,1.2120238E3,3.2355022E0,5.857937E0,2.3332174E1,1.1886917E3,5.76127E0,1.7570904E1,3.7538247E0,2.007445E0,1.4037746E0,1.616713E1,1.0695796E0,2.684245E0],"tree_param":{"num_deleted":"0","num_feature":"128","num_nodes":"19","size_leaf_vector":"1"}},{"base_weights":[4.43437E-3,-1.1025465E0,1.1087928E0,1.7406979E-1,-1.1092271E0,5.55616E-2,-3.3369508E-2,4.5207027E-2,-3.7362214E-2,-1.1108476E0,3.507735E-3,-8.609443E-1,-1.1184957E0,3.511257E-1,-1.0561837E0,-4.3141565E-1,-5.6001574E-2,-3.0684521E-2,1.0941949E0,-5.3909447E-2,-8.4368605E-3,-3.822823E-2,1.526429E-2,6.6259615E-2,1.4117901E-2],"categories":[],"categories_nodes":[],"categories_segments":[],"categories_sizes":[],"default_left":[0,0,0,0,0,0,0,0,0,0,0,0,0,0,0,0,0,0,0,0,0,0,0,0,0],"id":31,"left_children":[1,3,5,7,9,-1,-1,-1,-1,11,-1,13,15,17,19,21,-1,-1,23,-1,-1,-1,-1,-1,-1],"loss_changes":[2.8706584E3,1.0194458E1,5.8342285E0,5.3632445E0,2.3078613E0,0E0,0E0,0E0,0E0,1.2640381E0,0E0,9.586563E0,7.062988E-1,5.0828867E0,4.779396E-1,1.2496113E0,0E0,0E0,3.4508038E-1,0E0,0E0,0E0,0E0,0E0,0E0],"parents":[2147483647,0,0,1,1,2,2,3,3,4,4,9,9,11,11,12,12,13,13,14,14,15,15,18,18],"right_children":[2,4,6,8,10,-1,-1,-1,-1,12,-1,14,16,18,20,22,-1,-1,24,-1,-1,-1,-1,-1,-1],"split_conditions":[3.68686E0,-2.0185642E0,-7.9853934E-1,9.506045E-2,5.621876E-1,5.55616E-2,-3.3369508E-2,4.5207027E-2,-3.7362214E-2,-1.3814051E0,3.507735E-3,-4.5935577E-1,-5.745536E-1,-5.8780277E-1,9.0713733E-1,-1.372553E-1,-5.6001574E-2,-3.0684521E-2,-1.7107251E0,-5.3909447E-2,-8.4368605E-3,-3.822823E-2,1.526429E-2,6.6259615E-2,1.4117901E-2],"split_indices":[14,52,67,11,36,0,0,0,0,52,0,11,106,15,15,1,0,0,70,0,0,0,0,0,0],"split_type":[0,0,0,0,0,0,0,0,0,0,0,0,0,0,0,0,0,0,0,0,0,0,0,0,0],"sum_hessian":[2.3461797E3,1.1716995E3,1.1744802E3,5.969166E0,1.1657303E3,1.1732435E3,1.2368048E0,3.3406205E0,2.6285453E0,1.1641887E3,1.5415734E0,3.7943386E1,1.1262454E3,5.1532087E0,3.279018E1,3.140469E0,1.1231049E3,2.317819E0,2.8353894E0,3.1787052E1,1.0031272E0,2.1364903E0,1.0039786E0,1.7150548E0,1.1203346E0],"tree_param":{"num_deleted":"0","num_feature":"128","num_nodes":"25","size_leaf_vector":"1"}},{"base_weights":[3.0071952E-3,-1.0954098E0,1.1027066E0,3.3610836E-1,-1.1056097E0,5.526585E-2,-1.5143611E-2,-3.90342E-2,4.6236318E-2,-6.690567E-1,-5.5659886E-2,5.143794E-1,-9.438607E-1,-3.1449374E-2,5.073592E-2,-5.3231366E-2,7.0030177E-3,-2.8998414E-2,2.9564425E-2],"categories":[],"categories_nodes":[],"categories_segments":[],"categories_sizes":[],"default_left":[0,0,0,0,0,0,0,0,0,0,0,0,0,0,0,0,0,0,0],"id":32,"left_children":[1,3,5,7,9,-1,-1,-1,-1,11,-1,13,15,-1,-1,-1,17,-1,-1],"loss_changes":[2.713403E3,1.6781006E1,4.453491E0,6.452631E0,2.9523926E0,0E0,0E0,0E0,0E0,7.501912E0,0E0,3.3344228E0,2.05857E0,0E0,0E0,0E0,1.3739957E0,0E0,0E0],"parents":[2147483647,0,0,1,1,2,2,3,3,4,4,9,9,11,11,12,12,16,16],"right_children":[2,4,6,8,10,-1,-1,-1,-1,12,-1,14,16,-1,-1,-1,18,-1,-1],"split_conditions":[3.8189769E0,-2.2836616E0,7.6466125E-1,8.055076E-1,-1.8129501E0,5.526585E-2,-1.5143611E-2,-3.90342E-2,4.6236318E-2,-1.4826663E-1,-5.5659886E-2,-6.1809367E-1,-2.5770554E-1,-3.1449374E-2,5.073592E-2,-5.3231366E-2,6.9410944E-1,-2.8998414E-2,2.9564425E-2],"split_indices":[105,93,0,75,93,0,0,0,0,106,0,15,89,0,0,0,18,0,0],"split_type":[0,0,0,0,0,0,0,0,0,0,0,0,0,0,0,0,0,0,0],"sum_hessian":[2.2443276E3,1.1228206E3,1.1215072E3,7.7177143E0,1.1151028E3,1.1196415E3,1.8657448E0,2.5511277E0,5.166587E0,2.057481E1,1.094528E3,3.7130132E0,1.6861795E1,1.0519624E0,2.6610506E0,1.4855409E1,2.0063875E0,1.0045793E0,1.0018082E0],"tree_param":{"num_deleted":"0","num_feature":"128","num_nodes":"19","size_leaf_vector":"1"}},{"base_weights":[9.920065E-4,-1.0859675E0,1.0968375E0,-3.2978097E-1,-5.534481E-2,-3.3680256E-2,5.4978576E-2,7.384304E-1,-9.047902E-1,1.0751015E0,-2.8192744E-2,3.5212702E-1,-5.397286E-2,6.0190555E-2,4.0636724E-4,-1.8797033E-2,4.281972E-2],"categories":[],"categories_nodes":[],"categories_segments":[],"categories_sizes":[],"default_left":[0,0,0,0,0,0,0,0,0,0,0,0,0,0,0,0,0],"id":33,"left_children":[1,3,5,7,-1,-1,-1,9,11,13,-1,15,-1,-1,-1,-1,-1],"loss_changes":[2.5525618E3,1.6661133E1,5.906006E0,1.933953E1,0E0,0E0,0E0,5.5113716E0,4.8171024E0,1.2582674E0,0E0,1.5041006E0,0E0,0E0,0E0,0E0,0E0],"parents":[2147483647,0,0,1,1,2,2,3,3,7,7,8,8,9,9,11,11],"right_children":[2,4,6,8,-1,-1,-1,10,12,14,-1,16,-1,-1,-1,-1,-1],"split_conditions":[3.8189769E0,-1.8129501E0,-3.875107E-1,-1.3276829E0,-5.534481E-2,-3.3680256E-2,5.4978576E-2,4.8242724E-1,-1.5985733E0,9.349234E-1,-2.8192744E-2,1.0610281E0,-5.397286E-2,6.0190555E-2,4.0636724E-4,-1.8797033E-2,4.281972E-2],"split_indices":[105,93,31,52,0,0,0,49,121,87,0,13,0,0,0,0,0],"split_type":[0,0,0,0,0,0,0,0,0,0,0,0,0,0,0,0,0],"sum_hessian":[2.1409578E3,1.0748412E3,1.0661166E3,2.9398E1,1.0454431E3,1.2654954E0,1.0648511E3,1.0187738E1,1.9210262E1,8.233609E0,1.9541293E0,2.2198744E0,1.6990389E1,7.2328577E0,1.0007513E0,1.0124981E0,1.2073762E0],"tree_param":{"num_deleted":"0","num_feature":"128","num_nodes":"17","size_leaf_vector":"1"}},{"base_weights":[-4.3712356E-3,-1.0814492E0,1.0906807E0,-2.1062146E-1,-1.0981936E0,5.4696452E-2,-3.2116488E-2,-9.9694324E-1,5.6631315E-1,-6.411113E-1,-5.5096406E-2,-5.22169E-2,-1.3780983E-2,-6.0314566E-1,5.367548E-2,-4.9386263E-2,3.1793352E-2,-4.0648007E-3,-3.7591714E-2],"categories":[],"categories_nodes":[],"categories_segments":[],"categories_sizes":[],"default_left":[0,0,0,0,0,0,0,0,0,0,0,0,0,0,0,0,0,0,0],"id":34,"left_children":[1,3,5,7,9,-1,-1,11,13,15,-1,-1,-1,17,-1,-1,-1,-1,-1],"loss_changes":[2.4199407E3,1.4851196E1,6.4299316E0,1.3241768E1,1.0253906E0,0E0,0E0,7.711983E-2,7.2168727E0,5.3258333E0,0E0,0E0,0E0,2.4852705E-1,0E0,0E0,0E0,0E0,0E0],"parents":[2147483647,0,0,1,1,2,2,3,3,4,4,7,7,8,8,9,9,13,13],"right_children":[2,4,6,8,10,-1,-1,12,14,16,-1,-1,-1,18,-1,-1,-1,-1,-1],"split_conditions":[3.68686E0,-1.9498489E0,-7.9853934E-1,3.1506132E-2,-1.8129501E0,5.4696452E-2,-3.2116488E-2,-2.2937238E0,1.9497175E0,-1.7240208E-1,-5.5096406E-2,-5.22169E-2,-1.3780983E-2,7.8607523E-1,5.367548E-2,-4.9386263E-2,3.1793352E-2,-4.0648007E-3,-3.7591714E-2],"split_indices":[14,93,67,79,93,0,0,111,98,33,0,0,0,92,0,0,0,0,0],"split_type":[0,0,0,0,0,0,0,0,0,0,0,0,0,0,0,0,0,0,0],"sum_hessian":[2.0497424E3,1.0333582E3,1.01638434E3,1.9750956E1,1.0136072E3,1.0148509E3,1.5334945E0,9.67544E0,1.0075517E1,9.613593E0,1.0039936E3,8.65871E0,1.0167302E0,2.9906666E0,7.08485E0,7.7393837E0,1.8742096E0,1.0061512E0,1.9845154E0],"tree_param":{"num_deleted":"0","num_feature":"128","num_nodes":"19","size_leaf_vector":"1"}},{"base_weights":[8.4444025E-4,-1.0741992E0,1.0854181E0,-2.4442612E-1,-1.086646E0,5.443445E-2,-3.4444686E-2,4.6342656E-2,-7.149214E-1,-1.0878329E0,-9.909707E-3,1.86856E-2,-8.766731E-1,-6.376329E-1,-5.4556776E-2,-4.9093317E-2,-1.12898005E-2,2.7079424E-1,-4.7387842E-2,-1.4863691E-2,3.513963E-2],"categories":[],"categories_nodes":[],"categories_segments":[],"categories_sizes":[],"default_left":[0,0,0,0,0,0,0,0,0,0,0,0,0,0,0,0,0,0,0,0,0],"id":35,"left_children":[1,3,5,7,9,-1,-1,-1,11,13,-1,-1,15,17,-1,-1,-1,19,-1,-1,-1],"loss_changes":[2.2683052E3,9.824951E0,6.3702393E0,9.330554E0,7.9919434E-1,0E0,0E0,0E0,2.402988E0,7.32666E-1,0E0,0E0,5.013294E-1,2.905619E0,0E0,0E0,0E0,9.8704493E-1,0E0,0E0,0E0],"parents":[2147483647,0,0,1,1,2,2,3,3,4,4,8,8,9,9,12,12,13,13,17,17],"right_children":[2,4,6,8,10,-1,-1,-1,12,14,-1,-1,16,18,-1,-1,-1,20,-1,-1,-1],"split_conditions":[3.68686E0,-1.6970141E0,-1.3522583E0,-3.575226E-1,5.333142E-1,5.443445E-2,-3.4444686E-2,4.6342656E-2,-1.2362103E0,-1.5423435E0,-9.909707E-3,1.86856E-2,2.6146274E0,-1.2829677E0,-5.4556776E-2,-4.9093317E-2,-1.12898005E-2,1.2508437E-1,-4.7387842E-2,-1.4863691E-2,3.513963E-2],"split_indices":[14,52,50,45,36,0,0,0,50,52,0,0,14,24,0,0,0,23,0,0,0],"split_type":[0,0,0,0,0,0,0,0,0,0,0,0,0,0,0,0,0,0,0,0,0],"sum_hessian":[1.9434335E3,9.760096E2,9.674239E2,1.4728941E1,9.6128064E2,9.660295E2,1.3944166E0,3.943014E0,1.0785928E1,9.5977386E2,1.5067465E0,1.2257676E0,9.56016E0,8.402686E0,9.513712E2,7.7922645E0,1.7678955E0,2.170778E0,6.2319083E0,1.0724257E0,1.0983522E0],"tree_param":{"num_deleted":"0","num_feature":"128","num_nodes":"21","size_leaf_vector":"1"}},{"base_weights":[4.3055072E-4,-1.0715786E0,1.0810399E0,-1.0790932E0,1.8863855E-1,5.420956E-2,-2.151874E-2,-5.4415703E-2,-6.7515355E-1,-3.4706693E-2,8.9029074E-1,-9.2616683E-1,3.2569462E-1,9.623148E-3,5.4104842E-2,-9.9711007E-1,-7.526071E-3,-2.985378E-2,4.2502604E-2,-1.141753E-2,-5.1554885E-2],"categories":[],"categories_nodes":[],"categories_segments":[],"categories_sizes":[],"default_left":[0,0,0,0,0,0,0,0,0,0,0,0,0,0,0,0,0,0,0,0,0],"id":36,"left_children":[1,3,5,7,9,-1,-1,-1,11,-1,13,15,17,-1,-1,19,-1,-1,-1,-1,-1],"loss_changes":[2.1554524E3,9.049072E0,4.880005E0,2.7242432E0,4.5746503E0,0E0,0E0,0E0,6.1702394E0,0E0,3.2674766E-1,8.91901E-1,3.1318889E0,0E0,0E0,2.1320915E-1,0E0,0E0,0E0,0E0,0E0],"parents":[2147483647,0,0,1,1,2,2,3,3,4,4,8,8,10,10,11,11,12,12,15,15],"right_children":[2,4,6,8,10,-1,-1,-1,12,-1,14,16,18,-1,-1,20,-1,-1,-1,-1,-1],"split_conditions":[3.8189769E0,3.0323899E0,7.6466125E-1,2.5258777E0,-2.0526965E-1,5.420956E-2,-2.151874E-2,-5.4415703E-2,-3.4380448E-1,-3.4706693E-2,5.07658E-1,-2.5770554E-1,-2.4745858E0,9.623148E-3,5.4104842E-2,-5.256309E-1,-7.526071E-3,-2.985378E-2,4.2502604E-2,-1.141753E-2,-5.1554885E-2],"split_indices":[105,98,0,105,35,0,0,0,25,0,35,89,116,0,0,30,0,0,0,0,0],"split_type":[0,0,0,0,0,0,0,0,0,0,0,0,0,0,0,0,0,0,0,0,0],"sum_hessian":[1.8586777E3,9.3305597E2,9.2562177E2,9.276681E2,5.387915E0,9.2397797E2,1.643828E0,9.053083E2,2.2359787E1,2.3907485E0,2.9971666E0,1.7936035E1,4.4237504E0,1.0781333E0,1.9190332E0,1.617142E1,1.7646166E0,1.5526679E0,2.8710828E0,1.011485E0,1.5159934E1],"tree_param":{"num_deleted":"0","num_feature":"128","num_nodes":"21","size_leaf_vector":"1"}},{"base_weights":[6.826023E-3,-1.06469E0,1.0765089E0,-1.0790459E0,-3.2133454E-1,-3.2730784E-2,5.3983606E-2,-1.0817864E0,-6.497498E-1,-8.002138E-1,7.751151E-1,-5.412395E-2,-1.2397743E-2,3.3101257E-2,-4.688509E-2,-4.8790507E-2,1.3581911E-2,5.539913E-2,-1.09537095E-2],"categories":[],"categories_nodes":[],"categories_segments":[],"categories_sizes":[],"default_left":[0,0,0,0,0,0,0,0,0,0,0,0,0,0,0,0,0,0,0],"id":37,"left_children":[1,3,5,7,9,-1,-1,11,13,15,17,-1,-1,-1,-1,-1,-1,-1,-1],"loss_changes":[2.0525361E3,9.200256E0,5.6138916E0,3.291626E-1,1.0267791E1,0E0,0E0,2.3413086E-1,3.6684446E0,2.764637E0,2.2592373E0,0E0,0E0,0E0,0E0,0E0,0E0,0E0,0E0],"parents":[2147483647,0,0,1,1,2,2,3,3,4,4,7,7,8,8,9,9,10,10],"right_children":[2,4,6,8,10,-1,-1,12,14,16,18,-1,-1,-1,-1,-1,-1,-1,-1],"split_conditions":[3.8189769E0,2.6488967E0,-3.875107E-1,1.6680069E0,1.4266868E0,-3.2730784E-2,5.3983606E-2,1.5314867E0,6.405088E-1,-7.403475E-1,7.496031E-1,-5.412395E-2,-1.2397743E-2,3.3101257E-2,-4.688509E-2,-4.8790507E-2,1.3581911E-2,5.539913E-2,-1.09537095E-2],"split_indices":[105,105,31,75,120,0,0,99,126,28,44,0,0,0,0,0,0,0,0],"split_type":[0,0,0,0,0,0,0,0,0,0,0,0,0,0,0,0,0,0,0],"sum_hessian":[1.788759E3,8.9361615E2,8.951429E2,8.7624225E2,1.7373907E1,1.2570242E0,8.9388586E2,8.691738E2,7.068401E0,1.2280515E1,5.0933924E0,8.681545E2,1.0193826E0,1.0384816E0,6.029919E0,1.0628846E1,1.6516683E0,3.7300613E0,1.3633314E0],"tree_param":{"num_deleted":"0","num_feature":"128","num_nodes":"19","size_leaf_vector":"1"}},{"base_weights":[2.2520123E-3,1.0735155E0,-1.0580932E0,5.376892E-2,-1.2251946E-2,-8.5473046E-2,-1.0767149E0,-4.891052E-2,5.451843E-1,-5.9916264E-1,-1.0804766E0,-5.034243E-1,5.265447E-2,3.3177412E-1,-4.6757855E-2,-5.4082837E-2,-1.5593983E-2,7.261743E-3,-3.774989E-2,-2.8558372E-2,5.4182824E-2],"categories":[],"categories_nodes":[],"categories_segments":[],"categories_sizes":[],"default_left":[0,0,0,0,0,0,0,0,0,0,0,0,0,0,0,0,0,0,0,0,0],"id":38,"left_children":[1,3,5,-1,-1,7,9,-1,11,13,15,17,-1,19,-1,-1,-1,-1,-1,-1,-1],"loss_changes":[1.9363612E3,2.3464355E0,1.5424622E1,0E0,0E0,1.0206157E1,8.6242676E-1,0E0,6.2343626E0,3.067205E0,4.1796875E-1,7.9036796E-1,0E0,2.7070222E0,0E0,0E0,0E0,0E0,0E0,0E0,0E0],"parents":[2147483647,0,0,1,1,2,2,5,5,6,6,8,8,9,9,10,10,11,11,13,13],"right_children":[2,4,6,-1,-1,8,10,-1,12,14,16,18,-1,20,-1,-1,-1,-1,-1,-1,-1],"split_conditions":[-3.2722058E0,-4.5640953E-4,-1.9498489E0,5.376892E-2,-1.2251946E-2,-5.1829897E-2,-1.8129501E0,-4.891052E-2,1.9905951E0,1.0504477E-1,3.0323899E0,-1.1552733E0,5.265447E-2,-3.5671014E-1,-4.6757855E-2,-5.4082837E-2,-1.5593983E-2,7.261743E-3,-3.774989E-2,-2.8558372E-2,5.4182824E-2],"split_indices":[7,113,93,0,0,79,93,0,98,106,98,52,0,101,0,0,0,0,0,0,0],"split_type":[0,0,0,0,0,0,0,0,0,0,0,0,0,0,0,0,0,0,0,0,0],"sum_hessian":[1.7026797E3,8.46973E2,8.557067E2,8.459622E2,1.0107666E0,1.6180563E1,8.395261E2,6.470311E0,9.710252E0,7.8140554E0,8.317121E2,3.1714253E0,6.538826E0,2.0756447E0,5.738411E0,8.3003046E2,1.681625E0,1.0043905E0,2.1670349E0,1.0522907E0,1.0233542E0],"tree_param":{"num_deleted":"0","num_feature":"128","num_nodes":"21","size_leaf_vector":"1"}},{"base_weights":[3.5182724E-3,-1.052926E0,1.0682017E0,-2.4919523E-1,-5.3858977E-2,-2.5985366E-2,5.3545404E-2,8.1595176E-1,-8.924715E-1,5.7695944E-2,-3.3611096E-2,-9.8076016E-1,1.1309129E-2,-1.16787385E-2,-5.127706E-2],"categories":[],"categories_nodes":[],"categories_segments":[],"categories_sizes":[],"default_left":[0,0,0,0,0,0,0,0,0,0,0,0,0,0,0],"id":39,"left_children":[1,3,5,7,-1,-1,-1,9,11,-1,-1,13,-1,-1,-1],"loss_changes":[1.835912E3,1.5702393E1,4.050293E0,1.8063364E1,0E0,0E0,0E0,5.8296995E0,1.8268852E0,0E0,0E0,2.7071857E-1,0E0,0E0,0E0],"parents":[2147483647,0,0,1,1,2,2,3,3,7,7,8,8,11,11],"right_children":[2,4,6,8,-1,-1,-1,10,12,-1,-1,14,-1,-1,-1],"split_conditions":[3.68686E0,-1.8129501E0,9.734578E-2,-1.3276829E0,-5.3858977E-2,-2.5985366E-2,5.3545404E-2,9.349234E-1,-1.4065456E-2,5.7695944E-2,-3.3611096E-2,-8.556667E-1,1.1309129E-2,-1.16787385E-2,-5.127706E-2],"split_indices":[14,93,27,52,0,0,0,87,36,0,0,60,0,0,0],"split_type":[0,0,0,0,0,0,0,0,0,0,0,0,0,0,0],"sum_hessian":[1.6302429E3,8.182932E2,8.119497E2,2.4300001E1,7.939932E2,1.0565151E0,8.108932E2,9.048658E0,1.5251343E1,7.5570464E0,1.4916121E0,1.4249948E1,1.0013953E0,1.1572245E0,1.3092723E1],"tree_param":{"num_deleted":"0","num_feature":"128","num_nodes":"15","size_leaf_vector":"1"}},{"base_weights":[8.887774E-4,-1.0470247E0,1.0644238E0,-2.7245256E-1,-1.0717094E0,-2.9771466E-2,5.3372424E-2,6.6295534E-1,-8.009806E-1,-5.3649593E-2,-1.4868984E-2,1.0356679E0,-2.5704084E-2,-9.903819E-1,2.952364E-1,7.393279E-3,5.7591178E-2,-5.1050823E-2,-1.4613886E-2,-2.2633359E-2,4.232002E-2],"categories":[],"categories_nodes":[],"categories_segments":[],"categories_sizes":[],"default_left":[0,0,0,0,0,0,0,0,0,0,0,0,0,0,0,0,0,0,0,0,0],"id":40,"left_children":[1,3,5,7,9,-1,-1,11,13,-1,-1,15,-1,17,19,-1,-1,-1,-1,-1,-1],"loss_changes":[1.7457056E3,1.4793213E1,4.5386353E0,1.3240803E1,4.3988037E-1,0E0,0E0,4.8441806E0,3.796997E0,0E0,0E0,6.33688E-1,0E0,1.4294624E-2,1.7257679E0,0E0,0E0,0E0,0E0,0E0,0E0],"parents":[2147483647,0,0,1,1,2,2,3,3,4,4,7,7,8,8,11,11,13,13,14,14],"right_children":[2,4,6,8,10,-1,-1,12,14,-1,-1,16,-1,18,20,-1,-1,-1,-1,-1,-1],"split_conditions":[3.8189769E0,-1.8129501E0,-3.875107E-1,-1.3276829E0,3.0323899E0,-2.9771466E-2,5.3372424E-2,1.0264701E0,-1.1469938E0,-5.3649593E-2,-1.4868984E-2,-1.0597397E0,-2.5704084E-2,5.310323E-1,-5.3663397E-1,7.393279E-3,5.7591178E-2,-5.1050823E-2,-1.4613886E-2,-2.2633359E-2,4.232002E-2],"split_indices":[105,93,31,52,98,0,0,87,32,0,0,2,0,113,1,0,0,0,0,0,0],"split_type":[0,0,0,0,0,0,0,0,0,0,0,0,0,0,0,0,0,0,0,0,0],"sum_hessian":[1.5643678E3,7.8797864E2,7.763891E2,2.4708055E1,7.632706E2,1.0559713E0,7.753331E2,8.828578E0,1.5879477E1,7.6162354E2,1.6470942E0,6.796538E0,2.0320399E0,1.3622385E1,2.2570918E0,1.0493239E0,5.7472143E0,1.260662E1,1.015765E0,1.0334524E0,1.2236394E0],"tree_param":{"num_deleted":"0","num_feature":"128","num_nodes":"21","size_leaf_vector":"1"}},{"base_weights":[2.6875027E-3,-1.0457919E0,1.0598576E0,-8.675022E-2,-1.064091E0,5.3163648E-2,-2.8265694E-2,-8.880402E-1,6.0421586E-1,-5.8662295E-1,-1.0677105E0,-1.2179772E-2,-4.7542445E-2,-4.1347697E-1,4.981412E-2,-4.553681E-2,2.4585096E-2,-5.3450715E-2,-1.9677306E-2,-1.6379798E-3,-2.8872011E-2],"categories":[],"categories_nodes":[],"categories_segments":[],"categories_sizes":[],"default_left":[0,0,0,0,0,0,0,0,0,0,0,0,0,0,0,0,0,0,0,0,0],"id":41,"left_children":[1,3,5,7,9,-1,-1,11,13,15,17,-1,-1,19,-1,-1,-1,-1,-1,-1,-1],"loss_changes":[1.6501882E3,1.3025269E1,4.7157593E0,8.887879E0,6.4123535E-1,0E0,0E0,6.746769E-2,3.881088E0,3.1519582E0,2.1783447E-1,0E0,0E0,1.7614043E-1,0E0,0E0,0E0,0E0,0E0,0E0,0E0],"parents":[2147483647,0,0,1,1,2,2,3,3,4,4,7,7,8,8,9,9,10,10,13,13],"right_children":[2,4,6,8,10,-1,-1,12,14,16,18,-1,-1,20,-1,-1,-1,-1,-1,-1,-1],"split_conditions":[3.68686E0,-1.9498489E0,-7.9853934E-1,3.1506132E-2,-1.8129501E0,5.3163648E-2,-2.8265694E-2,-1.1110791E0,1.9065524E0,-1.7240208E-1,3.0323899E0,-1.2179772E-2,-4.7542445E-2,-3.3938947E-1,4.981412E-2,-4.553681E-2,2.4585096E-2,-5.3450715E-2,-1.9677306E-2,-1.6379798E-3,-2.8872011E-2],"split_indices":[14,93,67,79,93,0,0,2,98,33,98,0,0,56,0,0,0,0,0,0,0],"split_type":[0,0,0,0,0,0,0,0,0,0,0,0,0,0,0,0,0,0,0,0,0],"sum_hessian":[1.4867738E3,7.464605E2,7.4031323E2,1.4083714E1,7.3237683E2,7.391057E2,1.2075111E0,6.3891807E0,7.6945324E0,6.737204E0,7.256396E2,1.0006318E0,5.388549E0,2.1247303E0,5.569802E0,5.2996874E0,1.4375166E0,7.236545E2,1.9851422E0,1.0007709E0,1.1239594E0],"tree_param":{"num_deleted":"0","num_feature":"128","num_nodes":"21","size_leaf_vector":"1"}},{"base_weights":[4.29368E-4,-1.0412949E0,1.0568111E0,-1.2308636E-1,-1.0598258E0,5.3020872E-2,-3.0636823E-2,7.693692E-1,-7.2881085E-1,-5.7111806E-1,-1.0639035E0,-3.0036266E-3,4.718354E-2,-8.677869E-1,1.0554751E-2,1.8582506E-2,-4.5416784E-2,-5.3264197E-2,-1.4996827E-2,-7.445288E-3,-4.78948E-2],"categories":[],"categories_nodes":[],"categories_segments":[],"categories_sizes":[],"default_left":[0,0,0,0,0,0,0,0,0,0,0,0,0,0,0,0,0,0,0,0,0],"id":42,"left_children":[1,3,5,7,9,-1,-1,11,13,15,17,-1,-1,19,-1,-1,-1,-1,-1,-1,-1],"loss_changes":[1.5590032E3,1.2006226E1,4.8849487E0,8.8002205E0,7.854004E-1,0E0,0E0,1.0179348E0,1.4362688E0,2.8629315E0,4.104004E-1,0E0,0E0,4.114046E-1,0E0,0E0,0E0,0E0,0E0,0E0,0E0],"parents":[2147483647,0,0,1,1,2,2,3,3,4,4,7,7,8,8,9,9,10,10,13,13],"right_children":[2,4,6,8,10,-1,-1,12,14,16,18,-1,-1,20,-1,-1,-1,-1,-1,-1,-1],"split_conditions":[3.68686E0,-1.9498489E0,-1.3522583E0,6.772589E-2,-1.8129501E0,5.3020872E-2,-3.0636823E-2,1.7959446E0,-1.2913013E0,-1.3276829E0,3.0323899E0,-3.0036266E-3,4.718354E-2,-1.3987479E0,1.0554751E-2,1.8582506E-2,-4.5416784E-2,-5.3264197E-2,-1.4996827E-2,-7.445288E-3,-4.78948E-2],"split_indices":[14,93,50,49,93,0,0,98,32,52,98,0,0,46,0,0,0,0,0,0,0],"split_type":[0,0,0,0,0,0,0,0,0,0,0,0,0,0,0,0,0,0,0,0,0],"sum_hessian":[1.414685E3,7.122912E2,7.0239386E2,1.4241894E1,6.980493E2,7.0124396E2,1.149917E0,5.648866E0,8.593027E0,6.943395E0,6.9110596E2,1.0947374E0,4.554129E0,7.5529637E0,1.0400637E0,1.8023658E0,5.1410294E0,6.894657E2,1.6402506E0,1.1367321E0,6.4162316E0],"tree_param":{"num_deleted":"0","num_feature":"128","num_nodes":"21","size_leaf_vector":"1"}},{"base_weights":[1.1551697E-3,1.0531163E0,-1.0395349E0,-3.107039E-2,5.285695E-2,-1.0532267E0,-3.3973312E-1,-8.466917E-1,-5.3071033E-2,4.5785412E-1,-4.7843512E-2,1.3252835E-1,-9.8480326E-1,7.636645E-1,-2.9922238E-2,-2.8034484E-2,4.6713483E-2,-5.12892E-2,-8.331387E-3,4.585267E-2,5.855601E-3],"categories":[],"categories_nodes":[],"categories_segments":[],"categories_sizes":[],"default_left":[0,0,0,0,0,0,0,0,0,0,0,0,0,0,0,0,0,0,0,0,0],"id":43,"left_children":[1,3,5,-1,-1,7,9,11,-1,13,-1,15,17,19,-1,-1,-1,-1,-1,-1,-1],"loss_changes":[1.489318E3,5.2140503E0,6.194702E0,0E0,0E0,2.3565674E-1,7.624231E0,4.2581234E0,0E0,2.732729E0,0E0,3.1104126E0,7.29887E-1,4.7799063E-1,0E0,0E0,0E0,0E0,0E0,0E0,0E0],"parents":[2147483647,0,0,1,1,2,2,5,5,6,6,7,7,9,9,11,11,12,12,13,13],"right_children":[2,4,6,-1,-1,8,10,12,-1,14,-1,16,18,20,-1,-1,-1,-1,-1,-1,-1],"split_conditions":[-3.2722058E0,1.8844265E0,2.6488967E0,-3.107039E-2,5.285695E-2,-1.3276829E0,-1.0539978E0,-1.2165135E0,-5.3071033E-2,1.4412296E0,-4.7843512E-2,-1.2780436E0,2.4427404E0,-4.2553318E-1,-2.9922238E-2,-2.8034484E-2,4.6713483E-2,-5.12892E-2,-8.331387E-3,4.585267E-2,5.855601E-3],"split_indices":[7,108,105,0,0,52,52,50,0,76,0,53,105,60,0,0,0,0,0,0,0],"split_type":[0,0,0,0,0,0,0,0,0,0,0,0,0,0,0,0,0,0,0,0,0],"sum_hessian":[1.3583992E3,6.7553546E2,6.828637E2,1.2511072E0,6.7428436E2,6.6926434E2,1.3599396E1,2.9520243E1,6.397441E2,6.0449758E0,7.55442E0,3.6539462E0,2.5866295E1,4.902643E0,1.1423326E0,2.120841E0,1.5331053E0,2.4390862E1,1.4754341E0,3.6244097E0,1.2782333E0],"tree_param":{"num_deleted":"0","num_feature":"128","num_nodes":"21","size_leaf_vector":"1"}},{"base_weights":[4.4459864E-3,1.051202E0,-1.0313848E0,5.2703824E-2,-1.8911047E-2,-1.970509E-1,-1.0570012E0,6.594255E-1,-7.69142E-1,-5.2927013E-2,-1.0364913E-2,9.6311617E-1,-2.8023014E-2,1.5868217E-2,-4.7418814E-2,9.074212E-3,5.357212E-2],"categories":[],"categories_nodes":[],"categories_segments":[],"categories_sizes":[],"default_left":[0,0,0,0,0,0,0,0,0,0,0,0,0,0,0,0,0],"id":44,"left_children":[1,3,5,-1,-1,7,9,11,13,-1,-1,15,-1,-1,-1,-1,-1],"loss_changes":[1.4072028E3,3.0509033E0,1.3733704E1,0E0,0E0,1.0630677E1,6.078491E-1,3.8044884E0,2.8030949E0,0E0,0E0,4.341221E-1,0E0,0E0,0E0,0E0,0E0],"parents":[2147483647,0,0,1,1,2,2,5,5,6,6,7,7,8,8,11,11],"right_children":[2,4,6,-1,-1,8,10,12,14,-1,-1,16,-1,-1,-1,-1,-1],"split_conditions":[-3.2722058E0,6.0145378E-2,-1.8129501E0,5.2703824E-2,-1.8911047E-2,-1.3276829E0,3.0323899E0,1.0264701E0,-1.5985733E0,-5.2927013E-2,-1.0364913E-2,-9.456963E-1,-2.8023014E-2,1.5868217E-2,-4.7418814E-2,9.074212E-3,5.357212E-2],"split_indices":[7,113,93,0,0,52,98,87,121,0,0,2,0,0,0,0,0],"split_type":[0,0,0,0,0,0,0,0,0,0,0,0,0,0,0,0,0],"sum_hessian":[1.2958436E3,6.445154E2,6.513282E2,6.43484E2,1.0313675E0,1.9660912E1,6.316673E2,7.8123693E0,1.1848541E1,6.3027997E2,1.3873279E0,6.4236803E0,1.388689E0,1.5686747E0,1.0279867E1,1.1075386E0,5.3161416E0],"tree_param":{"num_deleted":"0","num_feature":"128","num_nodes":"17","size_leaf_vector":"1"}},{"base_weights":[3.851058E-3,1.0477133E0,-1.0309898E0,-2.526987E-2,5.255714E-2,-2.995463E-1,-5.2686002E-2,5.8376956E-1,-8.168236E-1,9.3708766E-1,-2.8778423E-2,2.0411318E-2,-4.763065E-2,3.4509343E-3,5.4439433E-2],"categories":[],"categories_nodes":[],"categories_segments":[],"categories_sizes":[],"default_left":[0,0,0,0,0,0,0,0,0,0,0,0,0,0,0],"id":45,"left_children":[1,3,5,-1,-1,7,-1,9,11,13,-1,-1,-1,-1,-1],"loss_changes":[1.3354165E3,3.8093262E0,1.0005737E1,0E0,0E0,9.664366E0,0E0,3.8201568E0,2.5677338E0,7.8334093E-1,0E0,0E0,0E0,0E0,0E0],"parents":[2147483647,0,0,1,1,2,2,5,5,7,7,8,8,9,9],"right_children":[2,4,6,-1,-1,8,-1,10,12,14,-1,-1,-1,-1,-1],"split_conditions":[-3.2722058E0,2.1194243E0,-1.8129501E0,-2.526987E-2,5.255714E-2,-1.3276829E0,-5.2686002E-2,1.0264701E0,-1.5985733E0,-9.456963E-1,-2.8778423E-2,2.0411318E-2,-4.763065E-2,3.4509343E-3,5.4439433E-2],"split_indices":[7,108,93,0,0,52,0,87,121,2,0,0,0,0,0],"split_type":[0,0,0,0,0,0,0,0,0,0,0,0,0,0,0],"sum_hessian":[1.234232E3,6.1443164E2,6.198005E2,1.0312767E0,6.134003E2,1.9107553E1,6.006929E2,7.009467E0,1.2098086E1,5.5191607E0,1.4903064E0,1.0069921E0,1.1091094E1,1.0374708E0,4.48169E0],"tree_param":{"num_deleted":"0","num_feature":"128","num_nodes":"15","size_leaf_vector":"1"}},{"base_weights":[2.8207758E-3,1.045551E0,-1.0232711E0,5.2417904E-2,-1.2773238E-2,-1.8176065E-1,-1.0506957E0,-4.8203137E-2,3.810227E-1,-5.261887E-2,-9.756672E-3,5.1050473E-2,-2.6856506E-1,3.3317555E-2,-7.1828103E-1,-4.0948827E-2,-7.579218E-3],"categories":[],"categories_nodes":[],"categories_segments":[],"categories_sizes":[],"default_left":[0,0,0,0,0,0,0,0,0,0,0,0,0,0,0,0,0],"id":46,"left_children":[1,3,5,-1,-1,7,9,-1,11,-1,-1,-1,13,-1,15,-1,-1],"loss_changes":[1.2692043E3,2.4164429E0,1.3607239E1,0E0,0E0,9.20759E0,6.2731934E-1,0E0,5.4270988E0,0E0,0E0,0E0,3.3978052E0,0E0,1.7083311E-1,0E0,0E0],"parents":[2147483647,0,0,1,1,2,2,5,5,6,6,8,8,12,12,14,14],"right_children":[2,4,6,-1,-1,8,10,-1,12,-1,-1,-1,14,-1,16,-1,-1],"split_conditions":[-3.2722058E0,-1.4689451E-1,-1.8129501E0,5.2417904E-2,-1.2773238E-2,-5.1829897E-2,3.0323899E0,-4.8203137E-2,9.018802E-2,-5.261887E-2,-9.756672E-3,5.1050473E-2,-1.5423435E0,3.3317555E-2,1.2116903E0,-4.0948827E-2,-7.579218E-3],"split_indices":[7,113,93,0,0,79,98,0,106,0,0,0,52,0,117,0,0],"split_type":[0,0,0,0,0,0,0,0,0,0,0,0,0,0,0,0,0],"sum_hessian":[1.1842422E3,5.873496E2,5.968926E2,5.862789E2,1.0707515E0,1.9079334E1,5.7781323E2,7.6844583E0,1.13948765E1,5.764502E2,1.363068E0,5.4518375E0,5.943039E0,1.7737886E0,4.1692505E0,3.1621897E0,1.0070608E0],"tree_param":{"num_deleted":"0","num_feature":"128","num_nodes":"17","size_leaf_vector":"1"}},{"base_weights":[-1.3661844E-3,1.042958E0,-1.0201825E0,5.228429E-2,-1.1627835E-2,-1.037947E0,-1.9783126E-1,-1.0406871E0,-4.2038837E-1,7.5209695E-1,-6.999127E-1,-1.0442759E0,-5.6787556E-1,1.2523646E-2,-3.579625E-2,5.4624196E-2,-1.5097524E-2,9.585294E-3,-8.5445267E-1,-1.2713651E-2,-5.2265923E-2,-4.1922223E-2,6.681693E-3,-4.6019323E-2,-1.0262403E-2],"categories":[],"categories_nodes":[],"categories_segments":[],"categories_sizes":[],"default_left":[0,0,0,0,0,0,0,0,0,0,0,0,0,0,0,0,0,0,0,0,0,0,0,0,0],"id":47,"left_children":[1,3,5,-1,-1,7,9,11,13,15,17,19,21,-1,-1,-1,-1,-1,23,-1,-1,-1,-1,-1,-1],"loss_changes":[1.1935472E3,2.1705322E0,8.089905E0,0E0,0E0,5.025635E-1,6.8422403E0,3.4436035E-1,9.985102E-1,2.1456928E0,1.4289069E0,1.8487549E-1,1.3180196E0,0E0,0E0,0E0,0E0,0E0,1.5388489E-1,0E0,0E0,0E0,0E0,0E0,0E0],"parents":[2147483647,0,0,1,1,2,2,5,5,6,6,7,7,8,8,9,9,10,10,11,11,12,12,18,18],"right_children":[2,4,6,-1,-1,8,10,12,14,16,18,20,22,-1,-1,-1,-1,-1,24,-1,-1,-1,-1,-1,-1],"split_conditions":[-3.2722058E0,-1.7476222E-1,2.6488967E0,5.228429E-2,-1.1627835E-2,1.2588884E0,-2.3787453E0,2.5258777E0,-1.5985733E0,6.405088E-1,-1.3173162E0,-1.2445631E0,-4.3770805E-1,1.2523646E-2,-3.579625E-2,5.4624196E-2,-1.5097524E-2,9.585294E-3,-3.4577012E-1,-1.2713651E-2,-5.2265923E-2,-4.1922223E-2,6.681693E-3,-4.6019323E-2,-1.0262403E-2],"split_indices":[7,113,105,0,0,99,7,105,121,126,19,11,25,0,0,0,0,0,89,0,0,0,0,0,0],"split_type":[0,0,0,0,0,0,0,0,0,0,0,0,0,0,0,0,0,0,0,0,0,0,0,0,0],"sum_hessian":[1.1197817E3,5.529569E2,5.668248E2,5.5195667E2,1.0001945E0,5.5458246E2,1.2242377E1,5.514507E2,3.1318138E0,4.0610304E0,8.181347E0,5.46097E2,5.353705E0,1.0043788E0,2.127435E0,3.0421526E0,1.0188779E0,1.1730331E0,7.0083137E0,1.0425705E0,5.450544E2,3.7226834E0,1.6310215E0,5.9829645E0,1.0253493E0],"tree_param":{"num_deleted":"0","num_feature":"128","num_nodes":"25","size_leaf_vector":"1"}},{"base_weights":[-2.1317115E-3,-1.0237209E0,1.0391214E0,2.782442E-1,-1.0358722E0,5.2141406E-2,-2.2654261E-2,3.7949625E-2,-3.3210658E-2,-4.5337772E-1,-1.0430554E0,2.8810313E-2,-4.2832196E-2,-5.2242078E-2,-1.51589615E-2],"categories":[],"categories_nodes":[],"categories_segments":[],"categories_sizes":[],"default_left":[0,0,0,0,0,0,0,0,0,0,0,0,0,0,0],"id":48,"left_children":[1,3,5,7,9,-1,-1,-1,-1,11,13,-1,-1,-1,-1],"loss_changes":[1.1373779E3,8.826721E0,3.401184E0,3.1224313E0,1.7653809E0,0E0,0E0,0E0,0E0,3.933574E0,3.8043213E-1,0E0,0E0,0E0,0E0],"parents":[2147483647,0,0,1,1,2,2,3,3,4,4,9,9,10,10],"right_children":[2,4,6,8,10,-1,-1,-1,-1,12,14,-1,-1,-1,-1],"split_conditions":[3.68686E0,-2.2836616E0,-9.4363487E-1,-7.8973395E-1,-1.9498489E0,5.2141406E-2,-2.2654261E-2,3.7949625E-2,-3.3210658E-2,1.7288743E0,3.0323899E0,2.8810313E-2,-4.2832196E-2,-5.2242078E-2,-1.51589615E-2],"split_indices":[14,93,67,121,93,0,0,0,0,3,98,0,0,0,0],"split_type":[0,0,0,0,0,0,0,0,0,0,0,0,0,0,0],"sum_hessian":[1.0672325E3,5.387114E2,5.2852106E2,4.7788277E0,5.339326E2,5.275119E2,1.0091751E0,3.2934847E0,1.4853427E0,7.2851644E0,5.266474E2,1.9296646E0,5.3554997E0,5.249679E2,1.6795355E0],"tree_param":{"num_deleted":"0","num_feature":"128","num_nodes":"15","size_leaf_vector":"1"}},{"base_weights":[2.7356667E-3,-1.016649E0,1.0362573E0,-2.736809E-1,-1.0422407E0,5.2023467E-2,-2.5729954E-2,-4.8101913E-2,3.683124E-1,-5.220762E-2,-4.8622003E-1,9.823273E-1,-3.4026656E-1,-1.4396984E-3,-3.262819E-2,5.567118E-2,9.746067E-3,2.9427622E-2,-6.838569E-1,-1.0255184E-2,-3.8112998E-2],"categories":[],"categories_nodes":[],"categories_segments":[],"categories_sizes":[],"default_left":[0,0,0,0,0,0,0,0,0,0,0,0,0,0,0,0,0,0,0,0,0],"id":49,"left_children":[1,3,5,7,9,-1,-1,-1,11,-1,13,15,17,-1,-1,-1,-1,-1,19,-1,-1],"loss_changes":[1.0803502E3,9.53064E0,3.8616333E0,8.550332E0,2.2399902E-2,0E0,0E0,0E0,4.8240333E0,0E0,2.536227E-1,3.8022852E-1,2.1684265E0,0E0,0E0,0E0,0E0,0E0,1.263833E-2,0E0,0E0],"parents":[2147483647,0,0,1,1,2,2,3,3,4,4,8,8,10,10,11,11,12,12,18,18],"right_children":[2,4,6,8,10,-1,-1,-1,12,-1,14,16,18,-1,-1,-1,-1,-1,20,-1,-1],"split_conditions":[3.68686E0,-1.8129501E0,-7.9853934E-1,4.3206643E-2,2.8412633E0,5.2023467E-2,-2.5729954E-2,-4.8101913E-2,1.5660411E-1,-5.220762E-2,-1.2551996E-1,3.1420246E-1,-2.2836616E0,-1.4396984E-3,-3.262819E-2,5.567118E-2,9.746067E-3,2.9427622E-2,1.4021187E-1,-1.0255184E-2,-3.8112998E-2],"split_indices":[14,93,67,79,105,0,0,0,106,0,83,16,93,0,0,0,0,0,61,0,0],"split_type":[0,0,0,0,0,0,0,0,0,0,0,0,0,0,0,0,0,0,0,0,0],"sum_hessian":[1.02343225E3,5.1524817E2,5.081841E2,1.7546316E1,4.9770187E2,5.0713583E2,1.0482786E0,8.226833E0,9.319483E0,4.9512173E2,2.5801396E0,4.7859297E0,4.5335536E0,1.0008944E0,1.5792451E0,3.7478971E0,1.0380325E0,1.0316831E0,3.5018702E0,1.0016292E0,2.500241E0],"tree_param":{"num_deleted":"0","num_feature":"128","num_nodes":"21","size_leaf_vector":"1"}},{"base_weights":[3.2245654E-3,-1.0108749E0,1.035923E0,-2.0483778E-1,-1.0397028E0,5.1927466E-2,-1.2294048E-3,-8.897133E-1,3.9846623E-1,-5.2084804E-2,-1.1761093E-2,-1.2032608E-2,-4.7113664E-2,5.241474E-2,-3.6977986E-1,2.597401E-2,-3.5934146E-2],"categories":[],"categories_nodes":[],"categories_segments":[],"categories_sizes":[],"default_left":[0,0,0,0,0,0,0,0,0,0,0,0,0,0,0,0,0],"id":50,"left_children":[1,3,5,7,9,-1,-1,11,13,-1,-1,-1,-1,-1,15,-1,-1],"loss_changes":[1.0261351E3,1.1274353E1,1.3777466E0,7.9224424E0,5.199585E-1,0E0,0E0,7.642937E-2,5.5938644E0,0E0,0E0,0E0,0E0,0E0,2.0854146E0,0E0,0E0],"parents":[2147483647,0,0,1,1,2,2,3,3,4,4,7,7,8,8,14,14],"right_children":[2,4,6,8,10,-1,-1,12,14,-1,-1,-1,-1,-1,16,-1,-1],"split_conditions":[3.68686E0,-1.8129501E0,-1.0207485E0,4.3206643E-2,3.0323899E0,5.1927466E-2,-1.2294048E-3,-1.0288106E0,1.2437654E-1,-5.2084804E-2,-1.1761093E-2,-1.2032608E-2,-4.7113664E-2,5.241474E-2,-1.6144664E0,2.597401E-2,-3.5934146E-2],"split_indices":[14,93,95,79,98,0,0,62,106,0,0,0,0,0,46,0,0],"split_type":[0,0,0,0,0,0,0,0,0,0,0,0,0,0,0,0,0],"sum_hessian":[9.778295E2,4.9336813E2,4.844614E2,1.7315922E1,4.7605222E2,4.8328525E2,1.176143E0,7.8873763E0,9.428547E0,4.7458148E2,1.4707179E0,1.0087674E0,6.8786087E0,4.910457E0,4.5180893E0,1.13539E0,3.382699E0],"tree_param":{"num_deleted":"0","num_feature":"128","num_nodes":"17","size_leaf_vector":"1"}},{"base_weights":[6.159613E-4,-1.0198644E0,1.0220132E0,-3.3512694E-1,-5.1971685E-2,-2.5488263E-1,1.0360388E0,-8.3907455E-1,6.510085E-1,3.0985167E-2,-3.788848E-2,8.403963E-3,5.1882643E-2,8.631853E-4,-4.726034E-2,-2.6340196E-2,5.2433398E-2],"categories":[],"categories_nodes":[],"categories_segments":[],"categories_sizes":[],"default_left":[0,0,0,0,0,0,0,0,0,0,0,0,0,0,0,0,0],"id":51,"left_children":[1,3,5,7,-1,9,11,13,15,-1,-1,-1,-1,-1,-1,-1,-1],"loss_changes":[9.73232E2,5.9103394E0,8.621338E0,7.729062E0,0E0,3.052464E0,4.7253418E-1,9.253683E-1,3.105654E0,0E0,0E0,0E0,0E0,0E0,0E0,0E0,0E0],"parents":[2147483647,0,0,1,1,2,2,3,3,5,5,6,6,7,7,8,8],"right_children":[2,4,6,8,-1,10,12,14,16,-1,-1,-1,-1,-1,-1,-1,-1],"split_conditions":[2.8412633E0,-1.8129501E0,2.823139E0,-1.2308016E0,-5.1971685E-2,-1.5423435E0,1.0998379E0,-1.4422507E0,7.889286E-1,3.0985167E-2,-3.788848E-2,8.403963E-3,5.1882643E-2,8.631853E-4,-4.726034E-2,-2.6340196E-2,5.2433398E-2],"split_indices":[105,93,108,32,0,52,119,52,118,0,0,0,0,0,0,0,0],"split_type":[0,0,0,0,0,0,0,0,0,0,0,0,0,0,0,0,0],"sum_hessian":[9.317208E2,4.6607034E2,4.6565045E2,1.3453495E1,4.5261685E2,4.872594E0,4.6077786E2,9.002202E0,4.4512925E0,1.6940786E0,3.1785157E0,1.0504582E0,4.5972742E2,1.0850128E0,7.9171896E0,1.0415633E0,3.409729E0],"tree_param":{"num_deleted":"0","num_feature":"128","num_nodes":"17","size_leaf_vector":"1"}},{"base_weights":[-1.950554E-3,1.0311154E0,-1.0099566E0,5.1716276E-2,-8.921456E-3,-2.3304652E-1,-1.035101E0,6.645745E-1,-7.028594E-1,-5.1866632E-2,-3.4803448E-3,4.365038E-2,-7.3865987E-3,-4.4538457E-2,1.8433118E-2],"categories":[],"categories_nodes":[],"categories_segments":[],"categories_sizes":[],"default_left":[0,0,0,0,0,0,0,0,0,0,0,0,0,0,0],"id":52,"left_children":[1,3,5,-1,-1,7,9,11,13,-1,-1,-1,-1,-1,-1],"loss_changes":[9.260934E2,1.8899231E0,8.551971E0,0E0,0E0,6.962325E0,8.6660767E-1,1.1119416E0,2.461945E0,0E0,0E0,0E0,0E0,0E0,0E0],"parents":[2147483647,0,0,1,1,2,2,5,5,6,6,7,7,8,8],"right_children":[2,4,6,-1,-1,8,10,12,14,-1,-1,-1,-1,-1,-1],"split_conditions":[-3.2722058E0,-2.7919382E-1,-1.8129501E0,5.1716276E-2,-8.921456E-3,-1.3814051E0,3.0323899E0,8.629751E-1,-1.10469E0,-5.1866632E-2,-3.4803448E-3,4.365038E-2,-7.3865987E-3,-4.4538457E-2,1.8433118E-2],"split_indices":[7,113,93,0,0,52,98,87,32,0,0,0,0,0,0],"split_type":[0,0,0,0,0,0,0,0,0,0,0,0,0,0,0],"sum_hessian":[8.873313E2,4.382071E2,4.4912424E2,4.3719165E2,1.0154436E0,1.4401962E1,4.3472226E2,4.8056917E0,9.596271E0,4.3364554E2,1.0767392E0,3.7649107E0,1.0407809E0,8.308007E0,1.2882639E0],"tree_param":{"num_deleted":"0","num_feature":"128","num_nodes":"15","size_leaf_vector":"1"}},{"base_weights":[-6.3089054E-4,-1.0130678E0,1.0174007E0,-3.8099763E-1,-1.032771E0,-3.8450364E-2,1.0313567E0,-7.542114E-1,5.58077E-1,-5.1753964E-2,-1.1318899E-2,5.165856E-2,7.423082E-3,1.1411157E-2,-8.9362425E-1,5.0679315E-2,-2.1845825E-2,-4.6941563E-2,-1.3117186E-2],"categories":[],"categories_nodes":[],"categories_segments":[],"categories_sizes":[],"default_left":[0,0,0,0,0,0,0,0,0,0,0,0,0,0,0,0,0,0,0],"id":53,"left_children":[1,3,5,7,9,-1,11,13,15,-1,-1,-1,-1,-1,17,-1,-1,-1,-1],"loss_changes":[8.716683E2,4.887207E0,1.1306274E1,5.468711E0,5.2996826E-1,0E0,5.1760864E-1,1.6738248E0,2.5598173E0,0E0,0E0,0E0,0E0,0E0,2.7718544E-2,0E0,0E0,0E0,0E0],"parents":[2147483647,0,0,1,1,2,2,3,3,4,4,6,6,7,7,8,8,14,14],"right_children":[2,4,6,8,10,-1,12,14,16,-1,-1,-1,-1,-1,18,-1,-1,-1,-1],"split_conditions":[1.6680069E0,-1.8129501E0,2.4427404E0,-1.2308016E0,3.0323899E0,-3.8450364E-2,-8.142392E-1,-8.556667E-1,5.1506174E-1,-5.1753964E-2,-1.1318899E-2,5.165856E-2,7.423082E-3,1.1411157E-2,1.8391107E0,5.0679315E-2,-2.1845825E-2,-4.6941563E-2,-1.3117186E-2],"split_indices":[75,93,105,32,98,0,95,60,87,0,0,0,0,0,120,0,0,0,0],"split_type":[0,0,0,0,0,0,0,0,0,0,0,0,0,0,0,0,0,0,0],"sum_hessian":[8.43711E2,4.2302032E2,4.2069067E2,1.3402721E1,4.096176E2,2.841692E0,4.17849E2,9.731869E0,3.6708527E0,4.0816568E2,1.4519236E0,4.1682217E2,1.0268145E0,1.1302222E0,8.601646E0,2.5052564E0,1.1655961E0,7.5722027E0,1.0294437E0],"tree_param":{"num_deleted":"0","num_feature":"128","num_nodes":"19","size_leaf_vector":"1"}},{"base_weights":[-3.489873E-3,-1.0113391E0,1.0159206E0,-3.2769758E-1,-5.1654913E-2,1.0307521E0,-3.4302976E-2,5.405836E-1,-4.2288803E-2,5.161477E-2,1.1072188E-2,4.7235217E-2,-2.5697222E-2],"categories":[],"categories_nodes":[],"categories_segments":[],"categories_sizes":[],"default_left":[0,0,0,0,0,0,0,0,0,0,0,0,0],"id":54,"left_children":[1,3,5,7,-1,9,-1,11,-1,-1,-1,-1,-1],"loss_changes":[8.246245E2,5.6651306E0,1.0779694E1,6.716342E0,0E0,2.659912E-1,0E0,2.961394E0,0E0,0E0,0E0,0E0,0E0],"parents":[2147483647,0,0,1,1,2,2,3,3,5,5,7,7],"right_children":[2,4,6,8,-1,10,-1,12,-1,-1,-1,-1,-1],"split_conditions":[3.0970712E0,-1.8129501E0,-2.3787453E0,-1.3276829E0,-5.1654913E-2,-1.9743239E0,-3.4302976E-2,6.044446E-1,-4.2288803E-2,5.161477E-2,1.1072188E-2,4.7235217E-2,-2.5697222E-2],"split_indices":[14,93,7,52,0,63,0,16,0,0,0,0,0],"split_type":[0,0,0,0,0,0,0,0,0,0,0,0,0],"sum_hessian":[8.00623E2,4.0259842E2,3.9802457E2,1.2914192E1,3.8968423E2,3.9497702E2,3.0475357E0,4.8097615E0,8.10443E0,3.9395026E2,1.0267621E0,3.5525017E0,1.25726E0],"tree_param":{"num_deleted":"0","num_feature":"128","num_nodes":"13","size_leaf_vector":"1"}},{"base_weights":[-3.0224132E-3,1.0235646E0,-9.965371E-1,-2.132436E-2,5.1435348E-2,-1.8193622E-1,-1.0287244E0,3.7589437E-1,-8.262026E-1,-5.1558208E-2,-4.5930907E-1,-3.4844542E-1,8.24442E-1,-8.614473E-3,-4.5066025E-2,-1.3839264E-3,-3.140835E-2,-3.2340612E-2,3.4095955E-3,9.6817175E-4,4.9950685E-2],"categories":[],"categories_nodes":[],"categories_segments":[],"categories_sizes":[],"default_left":[0,0,0,0,0,0,0,0,0,0,0,0,0,0,0,0,0,0,0,0,0],"id":55,"left_children":[1,3,5,-1,-1,7,9,11,13,-1,15,17,19,-1,-1,-1,-1,-1,-1,-1,-1],"loss_changes":[7.8594354E2,3.264679E0,1.0080566E1,0E0,0E0,6.0967712E0,4.937744E-2,3.314094E0,2.270608E-1,0E0,2.311061E-1,5.743783E-1,8.310094E-1,0E0,0E0,0E0,0E0,0E0,0E0,0E0,0E0],"parents":[2147483647,0,0,1,1,2,2,5,5,6,6,7,7,8,8,10,10,11,11,12,12],"right_children":[2,4,6,-1,-1,8,10,12,14,-1,16,18,20,-1,-1,-1,-1,-1,-1,-1,-1],"split_conditions":[-3.2722058E0,2.428675E0,-1.8129501E0,-2.132436E-2,5.1435348E-2,-8.889269E-1,2.8412633E0,-4.685198E-1,-6.4137554E-1,-5.1558208E-2,6.79889E-1,1.3060944E0,-8.211996E-2,-8.614473E-3,-4.5066025E-2,-1.3839264E-3,-3.140835E-2,-3.2340612E-2,3.4095955E-3,9.6817175E-4,4.9950685E-2],"split_indices":[7,108,93,0,0,121,105,33,60,0,127,118,35,0,0,0,0,0,0,0,0],"split_type":[0,0,0,0,0,0,0,0,0,0,0,0,0,0,0,0,0,0,0,0,0],"sum_hessian":[7.6858624E2,3.7798672E2,3.905995E2,1.0461739E0,3.7694055E2,1.5100011E1,3.7549948E2,8.316135E0,6.7838755E0,3.7309006E2,2.4094172E0,3.265689E0,5.0504465E0,1.0383615E0,5.745514E0,1.004825E0,1.4045923E0,1.581016E0,1.6846731E0,1.097943E0,3.9525037E0],"tree_param":{"num_deleted":"0","num_feature":"128","num_nodes":"21","size_leaf_vector":"1"}},{"base_weights":[-3.0243915E-4,-9.94036E-1,1.0234492E0,-1.6854481E-1,-1.0266374E0,-4.846127E-3,5.1350053E-2,-8.371824E-1,3.8837856E-1,-5.1465143E-2,-6.9804317E-3,-4.456008E-2,-1.24370335E-2,8.2778424E-1,-2.9913386E-2,5.512336E-3,5.1369697E-2],"categories":[],"categories_nodes":[],"categories_segments":[],"categories_sizes":[],"default_left":[0,0,0,0,0,0,0,0,0,0,0,0,0,0,0,0,0],"id":56,"left_children":[1,3,5,7,9,-1,-1,11,13,-1,-1,-1,-1,15,-1,-1,-1],"loss_changes":[7.467211E2,9.850586E0,1.538208E0,6.0401263E0,7.0303345E-1,0E0,0E0,1.0082245E-2,4.421429E0,0E0,0E0,0E0,0E0,8.442426E-1,0E0,0E0,0E0],"parents":[2147483647,0,0,1,1,2,2,3,3,4,4,7,7,8,8,13,13],"right_children":[2,4,6,8,10,-1,-1,12,14,-1,-1,-1,-1,16,-1,-1,-1],"split_conditions":[3.68686E0,-1.8129501E0,1.2899458E0,4.3206643E-2,3.0323899E0,-4.846127E-3,5.1350053E-2,-1.0816684E0,-1.275394E-1,-5.1465143E-2,-6.9804317E-3,-4.456008E-2,-1.24370335E-2,9.501414E-1,-2.9913386E-2,5.512336E-3,5.1369697E-2],"split_indices":[14,93,27,79,98,0,0,57,59,0,0,0,0,75,0,0,0],"split_type":[0,0,0,0,0,0,0,0,0,0,0,0,0,0,0,0,0],"sum_hessian":[7.319963E2,3.7145853E2,3.6053775E2,1.4347183E1,3.5711136E2,1.0562941E0,3.5948145E2,6.291015E0,8.056168E0,3.5588156E2,1.2297873E0,5.2908063E0,1.000209E0,5.6852417E0,2.370926E0,1.5751952E0,4.110047E0],"tree_param":{"num_deleted":"0","num_feature":"128","num_nodes":"17","size_leaf_vector":"1"}},{"base_weights":[2.0465397E-3,1.0203903E0,-9.9430156E-1,-1.6492957E-2,5.1269036E-2,-5.593551E-2,-1.0202852E0,-4.1886326E-2,4.9006122E-1,-1.0229979E0,-1.00060515E-2,-2.0204565E-2,4.494761E-2,-5.316761E-1,-5.138382E-2,1.5879614E-2,-4.027637E-2],"categories":[],"categories_nodes":[],"categories_segments":[],"categories_sizes":[],"default_left":[0,0,0,0,0,0,0,0,0,0,0,0,0,0,0,0,0],"id":57,"left_children":[1,3,5,-1,-1,7,9,-1,11,13,-1,-1,-1,15,-1,-1,-1],"loss_changes":[7.093115E2,2.6678467E0,8.558655E0,0E0,0E0,4.926258E0,5.601196E-1,0E0,2.8712678E0,2.4066162E-1,0E0,0E0,0E0,1.4888525E0,0E0,0E0,0E0],"parents":[2147483647,0,0,1,1,2,2,5,5,6,6,8,8,9,9,13,13],"right_children":[2,4,6,-1,-1,8,10,-1,12,14,-1,-1,-1,16,-1,-1,-1],"split_conditions":[-3.2722058E0,2.5338793E-1,-1.9498489E0,-1.6492957E-2,5.1269036E-2,-5.1829897E-2,3.0323899E0,-4.1886326E-2,1.9497175E0,-1.8129501E0,-1.00060515E-2,-2.0204565E-2,4.494761E-2,-2.2090268E0,-5.138382E-2,1.5879614E-2,-4.027637E-2],"split_indices":[7,61,93,0,0,79,98,0,98,93,0,0,0,7,0,0,0],"split_type":[0,0,0,0,0,0,0,0,0,0,0,0,0,0,0,0,0],"sum_hessian":[6.9708746E2,3.4472653E2,3.5236093E2,1.0296773E0,3.4369687E2,9.579043E0,3.427819E2,3.7192667E0,5.8597765E0,3.4140543E2,1.3764697E0,1.8424631E0,4.0173135E0,4.301657E0,3.3710376E2,1.009931E0,3.2917264E0],"tree_param":{"num_deleted":"0","num_feature":"128","num_nodes":"17","size_leaf_vector":"1"}},{"base_weights":[-5.5912514E-3,-9.8866504E-1,1.0190755E0,-1.61709E-1,-1.023008E0,5.1190127E-2,-7.97483E-3,-4.161488E-2,4.0332425E-1,-5.1294584E-2,-1.1279183E-2,9.361411E-1,-3.1811482E-1,1.32269515E-2,5.181275E-2,-3.5825428E-2,1.8680828E-2],"categories":[],"categories_nodes":[],"categories_segments":[],"categories_sizes":[],"default_left":[0,0,0,0,0,0,0,0,0,0,0,0,0,0,0,0,0],"id":58,"left_children":[1,3,5,7,9,-1,-1,-1,11,-1,-1,13,15,-1,-1,-1,-1],"loss_changes":[6.7368445E2,9.528015E0,1.9876709E0,5.9424343E0,5.21698E-1,0E0,0E0,0E0,3.6436696E0,0E0,0E0,7.955217E-2,1.4923831E0,0E0,0E0,0E0,0E0],"parents":[2147483647,0,0,1,1,2,2,3,3,4,4,8,8,11,11,12,12],"right_children":[2,4,6,8,10,-1,-1,-1,12,-1,-1,14,16,-1,-1,-1,-1],"split_conditions":[3.68686E0,-1.8129501E0,-1.0207485E0,4.3206643E-2,3.0323899E0,5.1190127E-2,-7.97483E-3,-4.161488E-2,1.5660411E-1,-5.1294584E-2,-1.1279183E-2,3.609956E-1,1.8301181E0,1.32269515E-2,5.181275E-2,-3.5825428E-2,1.8680828E-2],"split_indices":[14,93,95,79,98,0,0,0,106,0,0,35,98,0,0,0,0],"split_type":[0,0,0,0,0,0,0,0,0,0,0,0,0,0,0,0,0],"sum_hessian":[6.667867E2,3.4031793E2,3.2646872E2,1.3797248E1,3.265207E2,3.2529535E2,1.1733665E0,6.0929966E0,7.704251E0,3.250587E2,1.4620165E0,4.2602515E0,3.4439993E0,1.0252001E0,3.2350516E0,2.1626375E0,1.2813618E0],"tree_param":{"num_deleted":"0","num_feature":"128","num_nodes":"17","size_leaf_vector":"1"}},{"base_weights":[-1.9154109E-3,-9.9696606E-1,1.0064806E0,-1.8570769E-1,-1.0099307E0,-3.4314945E-2,1.0193872E0,-6.648358E-1,4.5578036E-2,-5.6173706E-1,-1.0182645E0,-5.979095E-4,5.114245E-2,-3.930019E-2,-5.319821E-3,-4.383719E-2,3.1662855E-2,-5.104964E-2,-7.5824806E-3],"categories":[],"categories_nodes":[],"categories_segments":[],"categories_sizes":[],"default_left":[0,0,0,0,0,0,0,0,0,0,0,0,0,0,0,0,0,0,0],"id":59,"left_children":[1,3,5,7,9,-1,11,13,-1,15,17,-1,-1,-1,-1,-1,-1,-1,-1],"loss_changes":[6.409557E2,3.1940613E0,7.6312256E0,3.909013E0,6.091919E-1,0E0,1.1378174E0,2.514043E-1,0E0,3.567896E0,5.762634E-1,0E0,0E0,0E0,0E0,0E0,0E0,0E0,0E0],"parents":[2147483647,0,0,1,1,2,2,3,3,4,4,6,6,7,7,9,9,10,10],"right_children":[2,4,6,8,10,-1,12,14,-1,16,18,-1,-1,-1,-1,-1,-1,-1,-1],"split_conditions":[1.6680069E0,-1.872858E0,2.4427404E0,1.1966234E0,-8.556667E-1,-3.4314945E-2,6.4933574E-1,-1.7711759E-1,4.5578036E-2,8.1479675E-1,4.4073045E-1,-5.979095E-4,5.114245E-2,-3.930019E-2,-5.319821E-3,-4.383719E-2,3.1662855E-2,-5.104964E-2,-7.5824806E-3],"split_indices":[75,121,105,13,60,0,27,36,0,27,36,0,0,0,0,0,0,0,0],"split_type":[0,0,0,0,0,0,0,0,0,0,0,0,0,0,0,0,0,0,0],"sum_hessian":[6.367805E2,3.205168E2,3.1626367E2,5.282619E0,3.152342E2,1.998327E0,3.1426535E2,3.951343E0,1.3312759E0,7.0032988E0,3.082309E2,1.0430763E0,3.1322226E2,2.9120069E0,1.0393361E0,5.753077E0,1.2502218E0,3.0708603E2,1.1448663E0],"tree_param":{"num_deleted":"0","num_feature":"128","num_nodes":"19","size_leaf_vector":"1"}},{"base_weights":[9.7450777E-4,-9.970405E-1,1.002348E0,-2.9405415E-1,-5.1142503E-2,1.0204432E0,-3.474641E-2,5.1718086E-1,-7.876116E-1,5.116656E-2,7.591714E-3,4.6944287E-2,-2.0909281E-2,-4.4773486E-2,-6.526956E-3],"categories":[],"categories_nodes":[],"categories_segments":[],"categories_sizes":[],"default_left":[0,0,0,0,0,0,0,0,0,0,0,0,0,0,0],"id":60,"left_children":[1,3,5,7,-1,9,-1,11,13,-1,-1,-1,-1,-1,-1],"loss_changes":[6.062697E2,5.211853E0,1.0009277E1,5.277427E0,0E0,5.9716797E-1,0E0,2.4455729E0,4.4714594E-1,0E0,0E0,0E0,0E0,0E0,0E0],"parents":[2147483647,0,0,1,1,2,2,3,3,5,5,7,7,8,8],"right_children":[2,4,6,8,-1,10,-1,12,14,-1,-1,-1,-1,-1,-1],"split_conditions":[3.0970712E0,-1.8129501E0,-2.3787453E0,-1.3276829E0,-5.1142503E-2,-2.053796E0,-3.474641E-2,2.6347739E-1,1.4392992E0,5.116656E-2,7.591714E-3,4.6944287E-2,-2.0909281E-2,-4.4773486E-2,-6.526956E-3],"split_indices":[14,93,7,52,0,63,0,16,31,0,0,0,0,0,0],"split_type":[0,0,0,0,0,0,0,0,0,0,0,0,0,0,0],"sum_hessian":[6.046423E2,3.0283115E2,3.0181116E2,1.1163332E1,2.9166782E2,2.9902194E2,2.7892027E0,4.2045937E0,6.9587383E0,2.9785355E2,1.1684136E0,2.8954387E0,1.3091551E0,5.6658716E0,1.292867E0],"tree_param":{"num_deleted":"0","num_feature":"128","num_nodes":"15","size_leaf_vector":"1"}},{"base_weights":[-3.3615285E-3,-9.981132E-1,1.0016785E0,-3.5644296E-1,-5.106805E-2,-2.9629547E-2,1.0176297E0,5.113292E-1,-6.6060245E-1,5.1098E-2,-5.0385925E-3,4.015155E-2,-3.802264E-3,6.107414E-3,-8.0655265E-1,-4.467008E-2,-7.53078E-3],"categories":[],"categories_nodes":[],"categories_segments":[],"categories_sizes":[],"default_left":[0,0,0,0,0,0,0,0,0,0,0,0,0,0,0,0,0],"id":61,"left_children":[1,3,5,7,-1,-1,9,11,13,-1,-1,-1,-1,-1,15,-1,-1],"loss_changes":[5.7794806E2,3.9698792E0,7.9157715E0,3.4242811E0,0E0,0E0,1.4836426E0,6.7765826E-1,1.137579E0,0E0,0E0,0E0,0E0,0E0,3.0963612E-1,0E0,0E0],"parents":[2147483647,0,0,1,1,2,2,3,3,6,6,7,7,8,8,14,14],"right_children":[2,4,6,8,-1,-1,10,12,14,-1,-1,-1,-1,-1,16,-1,-1],"split_conditions":[3.0970712E0,-1.8129501E0,7.4704844E-1,-4.494767E-2,-5.106805E-2,-2.9629547E-2,-1.9752378E0,3.2882962E-1,-1.5423435E0,5.1098E-2,-5.0385925E-3,4.015155E-2,-3.802264E-3,6.107414E-3,1.4392992E0,-4.467008E-2,-7.53078E-3],"split_indices":[14,93,27,49,0,0,125,44,52,0,0,0,0,0,31,0,0],"split_type":[0,0,0,0,0,0,0,0,0,0,0,0,0,0,0,0,0],"sum_hessian":[5.760838E2,2.8952725E2,2.8655655E2,1.0693881E1,2.7883334E2,2.4805908E0,2.8407596E2,2.5986803E0,8.0952015E0,2.830662E2,1.0097694E0,1.4910444E0,1.107636E0,1.2978325E0,6.7973685E0,5.682904E0,1.1144646E0],"tree_param":{"num_deleted":"0","num_feature":"128","num_nodes":"17","size_leaf_vector":"1"}},{"base_weights":[2.9273056E-3,-9.9070036E-1,1.0010056E0,-5.0549485E-2,-5.036473E-1,-2.8644318E-2,1.0148151E0,-4.2869207E-2,9.8524906E-2,5.1006325E-2,-8.350344E-3,5.7345206E-1,-2.969027E-2,3.9851855E-2,5.935737E-4],"categories":[],"categories_nodes":[],"categories_segments":[],"categories_sizes":[],"default_left":[0,0,0,0,0,0,0,0,0,0,0,0,0,0,0],"id":62,"left_children":[1,3,5,-1,7,-1,9,-1,11,-1,-1,13,-1,-1,-1],"loss_changes":[5.488251E2,2.2313232E0,6.58197E0,0E0,2.8713436E0,0E0,1.890564E0,0E0,2.2273498E0,0E0,0E0,4.8177373E-1,0E0,0E0,0E0],"parents":[2147483647,0,0,1,1,2,2,4,4,6,6,8,8,11,11],"right_children":[2,4,6,-1,8,-1,10,-1,12,-1,-1,14,-1,-1,-1],"split_conditions":[2.8412633E0,2.3701599E0,1.1429375E0,-5.0549485E-2,1.1564218E0,-2.8644318E-2,-1.2165135E0,-4.2869207E-2,1.6758173E0,5.1006325E-2,-8.350344E-3,3.2147732E-1,-2.969027E-2,3.9851855E-2,5.935737E-4],"split_indices":[105,105,75,0,120,0,50,0,77,0,0,44,0,0,0],"split_type":[0,0,0,0,0,0,0,0,0,0,0,0,0,0,0],"sum_hessian":[5.514083E2,2.7632397E2,2.7508438E2,2.6424072E2,1.2083254E1,2.0404997E0,2.7304388E2,7.344829E0,4.7384253E0,2.7195847E2,1.0854137E0,2.9123254E0,1.8260996E0,1.7831253E0,1.1292001E0],"tree_param":{"num_deleted":"0","num_feature":"128","num_nodes":"15","size_leaf_vector":"1"}},{"base_weights":[2.4403925E-3,-9.89114E-1,9.97911E-1,-1.0085561E0,-5.1865864E-1,-2.925673E-2,1.0131037E0,-5.053548E-2,-1.764716E-2,3.835097E-1,-7.365393E-1,5.0942756E-2,-5.999156E-3,-1.859744E-3,3.0276159E-2,-4.32358E-2,9.104058E-3],"categories":[],"categories_nodes":[],"categories_segments":[],"categories_sizes":[],"default_left":[0,0,0,0,0,0,0,0,0,0,0,0,0,0,0,0,0],"id":63,"left_children":[1,3,5,7,9,-1,11,-1,-1,13,15,-1,-1,-1,-1,-1,-1],"loss_changes":[5.207148E2,1.8942871E0,6.924103E0,1.2207031E-4,2.7488544E0,0E0,1.8239441E0,0E0,0E0,3.11921E-1,1.3877735E0,0E0,0E0,0E0,0E0,0E0,0E0],"parents":[2147483647,0,0,1,1,2,2,3,3,4,4,6,6,9,9,10,10],"right_children":[2,4,6,8,10,-1,12,-1,-1,14,16,-1,-1,-1,-1,-1,-1],"split_conditions":[2.8412633E0,2.3701599E0,1.1708567E0,1.2588884E0,-1.5423435E0,-2.925673E-2,-9.4363487E-1,-5.053548E-2,-1.764716E-2,-3.0182743E-1,-3.3048868E-1,5.0942756E-2,-5.999156E-3,-1.859744E-3,3.0276159E-2,-4.32358E-2,9.104058E-3],"split_indices":[105,105,75,99,52,0,67,0,0,62,36,0,0,0,0,0,0],"split_type":[0,0,0,0,0,0,0,0,0,0,0,0,0,0,0,0,0],"sum_hessian":[5.255395E2,2.6329083E2,2.6224863E2,2.5174341E2,1.15474205E1,2.1363025E0,2.6011234E2,2.5037936E2,1.3640457E0,2.098418E0,9.449002E0,2.58899E2,1.2133394E0,1.0124123E0,1.0860057E0,8.343499E0,1.105503E0],"tree_param":{"num_deleted":"0","num_feature":"128","num_nodes":"17",